digraph Tree {
node [shape=box, style="filled", color="black", fontname="helvetica"] ;
edge [fontname="helvetica"] ;
0 [label="twi <= 3.5\ngini = 0.73\nsamples = 4556\nvalue = [3481, 857, 621, 583, 400, 346, 263, 171, 176, 158\n151]\nclass = y[0]", fillcolor="#f4cbad"] ;
1 [label="twi <= 1.5\ngini = 0.589\nsamples = 2478\nvalue = [2431, 259, 390, 32, 242, 202, 146, 42, 32, 92, 34]\nclass = y[0]", fillcolor="#f0b68c"] ;
0 -> 1 [labeldistance=2.5, labelangle=45, headlabel="True"] ;
2 [label="VV_mean <= -644.5\ngini = 0.333\nsamples = 715\nvalue = [883, 26, 43, 0, 29, 48, 33, 4, 7, 13, 0]\nclass = y[0]", fillcolor="#ea9a60"] ;
1 -> 2 ;
3 [label="rem <= 30.5\ngini = 0.443\nsamples = 403\nvalue = [456.0, 19.0, 35.0, 0.0, 23.0, 42.0, 24.0, 2.0, 5.0\n12.0, 0.0]\nclass = y[0]", fillcolor="#eca471"] ;
2 -> 3 ;
4 [label="elevation <= 168.5\ngini = 0.797\nsamples = 132\nvalue = [75.0, 14.0, 35.0, 0.0, 19.0, 37.0, 17.0, 0.0, 4.0\n12.0, 0.0]\nclass = y[0]", fillcolor="#f9e4d4"] ;
3 -> 4 ;
5 [label="B8_slope <= -37.5\ngini = 0.821\nsamples = 71\nvalue = [26, 9, 23, 0, 15, 29, 11, 0, 2, 3, 0]\nclass = y[5]", fillcolor="#f9fdfe"] ;
4 -> 5 ;
6 [label="rem <= 13.0\ngini = 0.526\nsamples = 13\nvalue = [14, 0, 1, 0, 2, 2, 0, 0, 0, 2, 0]\nclass = y[0]", fillcolor="#efaf82"] ;
5 -> 6 ;
7 [label="B12_mean <= 1868.5\ngini = 0.76\nsamples = 8\nvalue = [4, 0, 1, 0, 2, 2, 0, 0, 0, 2, 0]\nclass = y[0]", fillcolor="#f9e3d3"] ;
6 -> 7 ;
8 [label="B12_mean <= 1660.5\ngini = 0.735\nsamples = 6\nvalue = [0, 0, 1, 0, 2, 2, 0, 0, 0, 2, 0]\nclass = y[4]", fillcolor="#ffffff"] ;
7 -> 8 ;
9 [label="VH_mean <= -1471.5\ngini = 0.64\nsamples = 4\nvalue = [0, 0, 1, 0, 2, 2, 0, 0, 0, 0, 0]\nclass = y[4]", fillcolor="#ffffff"] ;
8 -> 9 ;
10 [label="B8_mean <= 5740.0\ngini = 0.444\nsamples = 2\nvalue = [0, 0, 1, 0, 0, 2, 0, 0, 0, 0, 0]\nclass = y[5]", fillcolor="#9ce6f2"] ;
9 -> 10 ;
11 [label="gini = 0.0\nsamples = 1\nvalue = [0, 0, 1, 0, 0, 0, 0, 0, 0, 0, 0]\nclass = y[2]", fillcolor="#8fe539"] ;
10 -> 11 ;
12 [label="gini = 0.0\nsamples = 1\nvalue = [0, 0, 0, 0, 0, 2, 0, 0, 0, 0, 0]\nclass = y[5]", fillcolor="#39cee5"] ;
10 -> 12 ;
13 [label="gini = 0.0\nsamples = 2\nvalue = [0, 0, 0, 0, 2, 0, 0, 0, 0, 0, 0]\nclass = y[4]", fillcolor="#39e59d"] ;
9 -> 13 ;
14 [label="gini = 0.0\nsamples = 2\nvalue = [0, 0, 0, 0, 0, 0, 0, 0, 0, 2, 0]\nclass = y[9]", fillcolor="#e539ae"] ;
8 -> 14 ;
15 [label="gini = 0.0\nsamples = 2\nvalue = [4, 0, 0, 0, 0, 0, 0, 0, 0, 0, 0]\nclass = y[0]", fillcolor="#e58139"] ;
7 -> 15 ;
16 [label="gini = 0.0\nsamples = 5\nvalue = [10, 0, 0, 0, 0, 0, 0, 0, 0, 0, 0]\nclass = y[0]", fillcolor="#e58139"] ;
6 -> 16 ;
17 [label="elevation <= 40.5\ngini = 0.816\nsamples = 58\nvalue = [12, 9, 22, 0, 13, 27, 11, 0, 2, 1, 0]\nclass = y[5]", fillcolor="#f2fcfd"] ;
5 -> 17 ;
18 [label="rem <= 7.5\ngini = 0.46\nsamples = 6\nvalue = [0, 7, 0, 0, 2, 0, 0, 0, 0, 1, 0]\nclass = y[1]", fillcolor="#efe983"] ;
17 -> 18 ;
19 [label="B8_mean <= 6484.0\ngini = 0.219\nsamples = 4\nvalue = [0, 7, 0, 0, 1, 0, 0, 0, 0, 0, 0]\nclass = y[1]", fillcolor="#e9e155"] ;
18 -> 19 ;
20 [label="gini = 0.0\nsamples = 1\nvalue = [0, 0, 0, 0, 1, 0, 0, 0, 0, 0, 0]\nclass = y[4]", fillcolor="#39e59d"] ;
19 -> 20 ;
21 [label="gini = 0.0\nsamples = 3\nvalue = [0, 7, 0, 0, 0, 0, 0, 0, 0, 0, 0]\nclass = y[1]", fillcolor="#e5dc39"] ;
19 -> 21 ;
22 [label="VV_mean <= -943.5\ngini = 0.5\nsamples = 2\nvalue = [0, 0, 0, 0, 1, 0, 0, 0, 0, 1, 0]\nclass = y[4]", fillcolor="#ffffff"] ;
18 -> 22 ;
23 [label="gini = 0.0\nsamples = 1\nvalue = [0, 0, 0, 0, 0, 0, 0, 0, 0, 1, 0]\nclass = y[9]", fillcolor="#e539ae"] ;
22 -> 23 ;
24 [label="gini = 0.0\nsamples = 1\nvalue = [0, 0, 0, 0, 1, 0, 0, 0, 0, 0, 0]\nclass = y[4]", fillcolor="#39e59d"] ;
22 -> 24 ;
25 [label="VH_mean <= -1368.5\ngini = 0.788\nsamples = 52\nvalue = [12.0, 2.0, 22.0, 0.0, 11.0, 27.0, 11.0, 0.0, 2.0\n0.0, 0.0]\nclass = y[5]", fillcolor="#f0fbfd"] ;
17 -> 25 ;
26 [label="B8_slope <= -32.0\ngini = 0.739\nsamples = 38\nvalue = [12, 2, 8, 0, 8, 25, 2, 0, 2, 0, 0]\nclass = y[5]", fillcolor="#c8f1f8"] ;
25 -> 26 ;
27 [label="gini = 0.0\nsamples = 1\nvalue = [0, 0, 0, 0, 0, 0, 2, 0, 0, 0, 0]\nclass = y[6]", fillcolor="#396fe5"] ;
26 -> 27 ;
28 [label="B4_mean <= 1098.0\ngini = 0.721\nsamples = 37\nvalue = [12, 2, 8, 0, 8, 25, 0, 0, 2, 0, 0]\nclass = y[5]", fillcolor="#c6f1f7"] ;
26 -> 28 ;
29 [label="B8_phase <= 2808.0\ngini = 0.646\nsamples = 30\nvalue = [9.0, 0.0, 8.0, 0.0, 3.0, 25.0, 0.0, 0.0, 2.0, 0.0\n0.0]\nclass = y[5]", fillcolor="#aceaf4"] ;
28 -> 29 ;
30 [label="ndvi_amp <= 15.5\ngini = 0.39\nsamples = 13\nvalue = [3, 0, 2, 0, 0, 16, 0, 0, 0, 0, 0]\nclass = y[5]", fillcolor="#70dcec"] ;
29 -> 30 ;
31 [label="gini = 0.0\nsamples = 1\nvalue = [1, 0, 0, 0, 0, 0, 0, 0, 0, 0, 0]\nclass = y[0]", fillcolor="#e58139"] ;
30 -> 31 ;
32 [label="ndvi_mean <= 8929.0\ngini = 0.34\nsamples = 12\nvalue = [2, 0, 2, 0, 0, 16, 0, 0, 0, 0, 0]\nclass = y[5]", fillcolor="#65d9eb"] ;
30 -> 32 ;
33 [label="gini = 0.0\nsamples = 6\nvalue = [0, 0, 0, 0, 0, 11, 0, 0, 0, 0, 0]\nclass = y[5]", fillcolor="#39cee5"] ;
32 -> 33 ;
34 [label="ndvi_amp <= 69.0\ngini = 0.593\nsamples = 6\nvalue = [2, 0, 2, 0, 0, 5, 0, 0, 0, 0, 0]\nclass = y[5]", fillcolor="#aaeaf4"] ;
32 -> 34 ;
35 [label="gini = 0.0\nsamples = 1\nvalue = [0, 0, 2, 0, 0, 0, 0, 0, 0, 0, 0]\nclass = y[2]", fillcolor="#8fe539"] ;
34 -> 35 ;
36 [label="B8_mean <= 5476.0\ngini = 0.408\nsamples = 5\nvalue = [2, 0, 0, 0, 0, 5, 0, 0, 0, 0, 0]\nclass = y[5]", fillcolor="#88e2ef"] ;
34 -> 36 ;
37 [label="gini = 0.0\nsamples = 1\nvalue = [2, 0, 0, 0, 0, 0, 0, 0, 0, 0, 0]\nclass = y[0]", fillcolor="#e58139"] ;
36 -> 37 ;
38 [label="gini = 0.0\nsamples = 4\nvalue = [0, 0, 0, 0, 0, 5, 0, 0, 0, 0, 0]\nclass = y[5]", fillcolor="#39cee5"] ;
36 -> 38 ;
39 [label="VV_mean <= -812.0\ngini = 0.754\nsamples = 17\nvalue = [6, 0, 6, 0, 3, 9, 0, 0, 2, 0, 0]\nclass = y[5]", fillcolor="#e1f8fb"] ;
29 -> 39 ;
40 [label="ndvi_mean <= 9061.0\ngini = 0.7\nsamples = 14\nvalue = [5, 0, 1, 0, 3, 9, 0, 0, 2, 0, 0]\nclass = y[5]", fillcolor="#caf2f8"] ;
39 -> 40 ;
41 [label="B12_mean <= 1441.0\ngini = 0.633\nsamples = 12\nvalue = [5, 0, 1, 0, 0, 8, 0, 0, 2, 0, 0]\nclass = y[5]", fillcolor="#c9f2f8"] ;
40 -> 41 ;
42 [label="rem <= 3.5\ngini = 0.593\nsamples = 8\nvalue = [5, 0, 0, 0, 0, 2, 0, 0, 2, 0, 0]\nclass = y[0]", fillcolor="#f4c9aa"] ;
41 -> 42 ;
43 [label="B8_slope <= 86.5\ngini = 0.444\nsamples = 3\nvalue = [0, 0, 0, 0, 0, 1, 0, 0, 2, 0, 0]\nclass = y[8]", fillcolor="#de9cf2"] ;
42 -> 43 ;
44 [label="gini = 0.0\nsamples = 2\nvalue = [0, 0, 0, 0, 0, 0, 0, 0, 2, 0, 0]\nclass = y[8]", fillcolor="#bd39e5"] ;
43 -> 44 ;
45 [label="gini = 0.0\nsamples = 1\nvalue = [0, 0, 0, 0, 0, 1, 0, 0, 0, 0, 0]\nclass = y[5]", fillcolor="#39cee5"] ;
43 -> 45 ;
46 [label="B4_mean <= 660.0\ngini = 0.278\nsamples = 5\nvalue = [5, 0, 0, 0, 0, 1, 0, 0, 0, 0, 0]\nclass = y[0]", fillcolor="#ea9a61"] ;
42 -> 46 ;
47 [label="gini = 0.0\nsamples = 1\nvalue = [0, 0, 0, 0, 0, 1, 0, 0, 0, 0, 0]\nclass = y[5]", fillcolor="#39cee5"] ;
46 -> 47 ;
48 [label="gini = 0.0\nsamples = 4\nvalue = [5, 0, 0, 0, 0, 0, 0, 0, 0, 0, 0]\nclass = y[0]", fillcolor="#e58139"] ;
46 -> 48 ;
49 [label="elevation <= 132.5\ngini = 0.245\nsamples = 4\nvalue = [0, 0, 1, 0, 0, 6, 0, 0, 0, 0, 0]\nclass = y[5]", fillcolor="#5ad6e9"] ;
41 -> 49 ;
50 [label="gini = 0.0\nsamples = 1\nvalue = [0, 0, 1, 0, 0, 0, 0, 0, 0, 0, 0]\nclass = y[2]", fillcolor="#8fe539"] ;
49 -> 50 ;
51 [label="gini = 0.0\nsamples = 3\nvalue = [0, 0, 0, 0, 0, 6, 0, 0, 0, 0, 0]\nclass = y[5]", fillcolor="#39cee5"] ;
49 -> 51 ;
52 [label="VV_mean <= -892.5\ngini = 0.375\nsamples = 2\nvalue = [0, 0, 0, 0, 3, 1, 0, 0, 0, 0, 0]\nclass = y[4]", fillcolor="#7beebe"] ;
40 -> 52 ;
53 [label="gini = 0.0\nsamples = 1\nvalue = [0, 0, 0, 0, 3, 0, 0, 0, 0, 0, 0]\nclass = y[4]", fillcolor="#39e59d"] ;
52 -> 53 ;
54 [label="gini = 0.0\nsamples = 1\nvalue = [0, 0, 0, 0, 0, 1, 0, 0, 0, 0, 0]\nclass = y[5]", fillcolor="#39cee5"] ;
52 -> 54 ;
55 [label="VH_mean <= -1420.5\ngini = 0.278\nsamples = 3\nvalue = [1, 0, 5, 0, 0, 0, 0, 0, 0, 0, 0]\nclass = y[2]", fillcolor="#a5ea61"] ;
39 -> 55 ;
56 [label="gini = 0.0\nsamples = 2\nvalue = [0, 0, 5, 0, 0, 0, 0, 0, 0, 0, 0]\nclass = y[2]", fillcolor="#8fe539"] ;
55 -> 56 ;
57 [label="gini = 0.0\nsamples = 1\nvalue = [1, 0, 0, 0, 0, 0, 0, 0, 0, 0, 0]\nclass = y[0]", fillcolor="#e58139"] ;
55 -> 57 ;
58 [label="B8_mean <= 6420.0\ngini = 0.62\nsamples = 7\nvalue = [3, 2, 0, 0, 5, 0, 0, 0, 0, 0, 0]\nclass = y[4]", fillcolor="#c6f8e3"] ;
28 -> 58 ;
59 [label="gini = 0.0\nsamples = 2\nvalue = [0, 0, 0, 0, 5, 0, 0, 0, 0, 0, 0]\nclass = y[4]", fillcolor="#39e59d"] ;
58 -> 59 ;
60 [label="ndvi_mean <= 8408.5\ngini = 0.48\nsamples = 5\nvalue = [3, 2, 0, 0, 0, 0, 0, 0, 0, 0, 0]\nclass = y[0]", fillcolor="#f6d5bd"] ;
58 -> 60 ;
61 [label="gini = 0.0\nsamples = 3\nvalue = [3, 0, 0, 0, 0, 0, 0, 0, 0, 0, 0]\nclass = y[0]", fillcolor="#e58139"] ;
60 -> 61 ;
62 [label="gini = 0.0\nsamples = 2\nvalue = [0, 2, 0, 0, 0, 0, 0, 0, 0, 0, 0]\nclass = y[1]", fillcolor="#e5dc39"] ;
60 -> 62 ;
63 [label="ndvi_mean <= 9127.5\ngini = 0.63\nsamples = 14\nvalue = [0, 0, 14, 0, 3, 2, 9, 0, 0, 0, 0]\nclass = y[2]", fillcolor="#e2f8cb"] ;
25 -> 63 ;
64 [label="B12_mean <= 1448.0\ngini = 0.41\nsamples = 10\nvalue = [0, 0, 14, 0, 0, 1, 4, 0, 0, 0, 0]\nclass = y[2]", fillcolor="#b4ee7b"] ;
63 -> 64 ;
65 [label="gini = 0.0\nsamples = 6\nvalue = [0, 0, 10, 0, 0, 0, 0, 0, 0, 0, 0]\nclass = y[2]", fillcolor="#8fe539"] ;
64 -> 65 ;
66 [label="rem <= 18.5\ngini = 0.593\nsamples = 4\nvalue = [0, 0, 4, 0, 0, 1, 4, 0, 0, 0, 0]\nclass = y[2]", fillcolor="#ffffff"] ;
64 -> 66 ;
67 [label="VV_mean <= -669.5\ngini = 0.32\nsamples = 3\nvalue = [0, 0, 4, 0, 0, 1, 0, 0, 0, 0, 0]\nclass = y[2]", fillcolor="#abec6a"] ;
66 -> 67 ;
68 [label="gini = 0.0\nsamples = 2\nvalue = [0, 0, 4, 0, 0, 0, 0, 0, 0, 0, 0]\nclass = y[2]", fillcolor="#8fe539"] ;
67 -> 68 ;
69 [label="gini = 0.0\nsamples = 1\nvalue = [0, 0, 0, 0, 0, 1, 0, 0, 0, 0, 0]\nclass = y[5]", fillcolor="#39cee5"] ;
67 -> 69 ;
70 [label="gini = 0.0\nsamples = 1\nvalue = [0, 0, 0, 0, 0, 0, 4, 0, 0, 0, 0]\nclass = y[6]", fillcolor="#396fe5"] ;
66 -> 70 ;
71 [label="ndvi_mean <= 9147.5\ngini = 0.568\nsamples = 4\nvalue = [0, 0, 0, 0, 3, 1, 5, 0, 0, 0, 0]\nclass = y[6]", fillcolor="#bdcff6"] ;
63 -> 71 ;
72 [label="gini = 0.0\nsamples = 2\nvalue = [0, 0, 0, 0, 0, 0, 5, 0, 0, 0, 0]\nclass = y[6]", fillcolor="#396fe5"] ;
71 -> 72 ;
73 [label="B8_mean <= 6365.0\ngini = 0.375\nsamples = 2\nvalue = [0, 0, 0, 0, 3, 1, 0, 0, 0, 0, 0]\nclass = y[4]", fillcolor="#7beebe"] ;
71 -> 73 ;
74 [label="gini = 0.0\nsamples = 1\nvalue = [0, 0, 0, 0, 0, 1, 0, 0, 0, 0, 0]\nclass = y[5]", fillcolor="#39cee5"] ;
73 -> 74 ;
75 [label="gini = 0.0\nsamples = 1\nvalue = [0, 0, 0, 0, 3, 0, 0, 0, 0, 0, 0]\nclass = y[4]", fillcolor="#39e59d"] ;
73 -> 75 ;
76 [label="B4_mean <= 648.5\ngini = 0.693\nsamples = 61\nvalue = [49.0, 5.0, 12.0, 0.0, 4.0, 8.0, 6.0, 0.0, 2.0, 9.0\n0.0]\nclass = y[0]", fillcolor="#f3c7a7"] ;
4 -> 76 ;
77 [label="B8_mean <= 5577.5\ngini = 0.309\nsamples = 17\nvalue = [23, 0, 2, 0, 3, 0, 0, 0, 0, 0, 0]\nclass = y[0]", fillcolor="#ea9a61"] ;
76 -> 77 ;
78 [label="gini = 0.0\nsamples = 7\nvalue = [14, 0, 0, 0, 0, 0, 0, 0, 0, 0, 0]\nclass = y[0]", fillcolor="#e58139"] ;
77 -> 78 ;
79 [label="ndvi_mean <= 9055.0\ngini = 0.52\nsamples = 10\nvalue = [9, 0, 2, 0, 3, 0, 0, 0, 0, 0, 0]\nclass = y[0]", fillcolor="#f1ba93"] ;
77 -> 79 ;
80 [label="elevation <= 188.5\ngini = 0.444\nsamples = 2\nvalue = [1, 0, 2, 0, 0, 0, 0, 0, 0, 0, 0]\nclass = y[2]", fillcolor="#c7f29c"] ;
79 -> 80 ;
81 [label="gini = 0.0\nsamples = 1\nvalue = [1, 0, 0, 0, 0, 0, 0, 0, 0, 0, 0]\nclass = y[0]", fillcolor="#e58139"] ;
80 -> 81 ;
82 [label="gini = 0.0\nsamples = 1\nvalue = [0, 0, 2, 0, 0, 0, 0, 0, 0, 0, 0]\nclass = y[2]", fillcolor="#8fe539"] ;
80 -> 82 ;
83 [label="B8_mean <= 5690.5\ngini = 0.397\nsamples = 8\nvalue = [8, 0, 0, 0, 3, 0, 0, 0, 0, 0, 0]\nclass = y[0]", fillcolor="#efb083"] ;
79 -> 83 ;
84 [label="gini = 0.0\nsamples = 1\nvalue = [0, 0, 0, 0, 2, 0, 0, 0, 0, 0, 0]\nclass = y[4]", fillcolor="#39e59d"] ;
83 -> 84 ;
85 [label="rem <= 22.5\ngini = 0.198\nsamples = 7\nvalue = [8, 0, 0, 0, 1, 0, 0, 0, 0, 0, 0]\nclass = y[0]", fillcolor="#e89152"] ;
83 -> 85 ;
86 [label="gini = 0.0\nsamples = 5\nvalue = [6, 0, 0, 0, 0, 0, 0, 0, 0, 0, 0]\nclass = y[0]", fillcolor="#e58139"] ;
85 -> 86 ;
87 [label="rem <= 26.5\ngini = 0.444\nsamples = 2\nvalue = [2, 0, 0, 0, 1, 0, 0, 0, 0, 0, 0]\nclass = y[0]", fillcolor="#f2c09c"] ;
85 -> 87 ;
88 [label="gini = 0.0\nsamples = 1\nvalue = [0, 0, 0, 0, 1, 0, 0, 0, 0, 0, 0]\nclass = y[4]", fillcolor="#39e59d"] ;
87 -> 88 ;
89 [label="gini = 0.0\nsamples = 1\nvalue = [2, 0, 0, 0, 0, 0, 0, 0, 0, 0, 0]\nclass = y[0]", fillcolor="#e58139"] ;
87 -> 89 ;
90 [label="B8_mean <= 5757.5\ngini = 0.78\nsamples = 44\nvalue = [26, 5, 10, 0, 1, 8, 6, 0, 2, 9, 0]\nclass = y[0]", fillcolor="#f8dcc7"] ;
76 -> 90 ;
91 [label="rem <= 16.0\ngini = 0.541\nsamples = 7\nvalue = [0, 0, 8, 0, 0, 5, 0, 0, 1, 0, 0]\nclass = y[2]", fillcolor="#daf6bd"] ;
90 -> 91 ;
92 [label="VV_mean <= -794.0\ngini = 0.34\nsamples = 5\nvalue = [0, 0, 8, 0, 0, 1, 0, 0, 1, 0, 0]\nclass = y[2]", fillcolor="#a8eb65"] ;
91 -> 92 ;
93 [label="ndvi_amp <= 1980.5\ngini = 0.5\nsamples = 2\nvalue = [0, 0, 0, 0, 0, 1, 0, 0, 1, 0, 0]\nclass = y[5]", fillcolor="#ffffff"] ;
92 -> 93 ;
94 [label="gini = 0.0\nsamples = 1\nvalue = [0, 0, 0, 0, 0, 0, 0, 0, 1, 0, 0]\nclass = y[8]", fillcolor="#bd39e5"] ;
93 -> 94 ;
95 [label="gini = 0.0\nsamples = 1\nvalue = [0, 0, 0, 0, 0, 1, 0, 0, 0, 0, 0]\nclass = y[5]", fillcolor="#39cee5"] ;
93 -> 95 ;
96 [label="gini = 0.0\nsamples = 3\nvalue = [0, 0, 8, 0, 0, 0, 0, 0, 0, 0, 0]\nclass = y[2]", fillcolor="#8fe539"] ;
92 -> 96 ;
97 [label="gini = 0.0\nsamples = 2\nvalue = [0, 0, 0, 0, 0, 4, 0, 0, 0, 0, 0]\nclass = y[5]", fillcolor="#39cee5"] ;
91 -> 97 ;
98 [label="B4_mean <= 1076.0\ngini = 0.703\nsamples = 37\nvalue = [26, 5, 2, 0, 1, 3, 6, 0, 1, 9, 0]\nclass = y[0]", fillcolor="#f5ceb2"] ;
90 -> 98 ;
99 [label="B8_phase <= 812.0\ngini = 0.773\nsamples = 24\nvalue = [11, 1, 2, 0, 1, 2, 6, 0, 1, 6, 0]\nclass = y[0]", fillcolor="#fae5d6"] ;
98 -> 99 ;
100 [label="gini = 0.0\nsamples = 1\nvalue = [0, 0, 0, 0, 0, 0, 0, 0, 0, 2, 0]\nclass = y[9]", fillcolor="#e539ae"] ;
99 -> 100 ;
101 [label="rem <= 18.5\ngini = 0.765\nsamples = 23\nvalue = [11, 1, 2, 0, 1, 2, 6, 0, 1, 4, 0]\nclass = y[0]", fillcolor="#f9e2d2"] ;
99 -> 101 ;
102 [label="ndvi_mean <= 8963.0\ngini = 0.83\nsamples = 17\nvalue = [4, 1, 2, 0, 1, 2, 5, 0, 1, 4, 0]\nclass = y[6]", fillcolor="#f3f6fd"] ;
101 -> 102 ;
103 [label="elevation <= 237.5\ngini = 0.716\nsamples = 8\nvalue = [0, 1, 0, 0, 0, 2, 3, 0, 0, 3, 0]\nclass = y[6]", fillcolor="#ffffff"] ;
102 -> 103 ;
104 [label="B8_mean <= 6350.0\ngini = 0.5\nsamples = 4\nvalue = [0, 0, 0, 0, 0, 2, 0, 0, 0, 2, 0]\nclass = y[5]", fillcolor="#ffffff"] ;
103 -> 104 ;
105 [label="gini = 0.0\nsamples = 2\nvalue = [0, 0, 0, 0, 0, 0, 0, 0, 0, 2, 0]\nclass = y[9]", fillcolor="#e539ae"] ;
104 -> 105 ;
106 [label="gini = 0.0\nsamples = 2\nvalue = [0, 0, 0, 0, 0, 2, 0, 0, 0, 0, 0]\nclass = y[5]", fillcolor="#39cee5"] ;
104 -> 106 ;
107 [label="elevation <= 282.5\ngini = 0.56\nsamples = 4\nvalue = [0, 1, 0, 0, 0, 0, 3, 0, 0, 1, 0]\nclass = y[6]", fillcolor="#9cb7f2"] ;
103 -> 107 ;
108 [label="gini = 0.0\nsamples = 2\nvalue = [0, 0, 0, 0, 0, 0, 3, 0, 0, 0, 0]\nclass = y[6]", fillcolor="#396fe5"] ;
107 -> 108 ;
109 [label="rem <= 3.5\ngini = 0.5\nsamples = 2\nvalue = [0, 1, 0, 0, 0, 0, 0, 0, 0, 1, 0]\nclass = y[1]", fillcolor="#ffffff"] ;
107 -> 109 ;
110 [label="gini = 0.0\nsamples = 1\nvalue = [0, 1, 0, 0, 0, 0, 0, 0, 0, 0, 0]\nclass = y[1]", fillcolor="#e5dc39"] ;
109 -> 110 ;
111 [label="gini = 0.0\nsamples = 1\nvalue = [0, 0, 0, 0, 0, 0, 0, 0, 0, 1, 0]\nclass = y[9]", fillcolor="#e539ae"] ;
109 -> 111 ;
112 [label="B4_mean <= 707.5\ngini = 0.777\nsamples = 9\nvalue = [4, 0, 2, 0, 1, 0, 2, 0, 1, 1, 0]\nclass = y[0]", fillcolor="#f9e3d3"] ;
102 -> 112 ;
113 [label="B4_mean <= 695.0\ngini = 0.722\nsamples = 5\nvalue = [0, 0, 2, 0, 1, 0, 2, 0, 1, 0, 0]\nclass = y[2]", fillcolor="#ffffff"] ;
112 -> 113 ;
114 [label="rem <= 3.0\ngini = 0.625\nsamples = 4\nvalue = [0, 0, 2, 0, 1, 0, 0, 0, 1, 0, 0]\nclass = y[2]", fillcolor="#daf6bd"] ;
113 -> 114 ;
115 [label="gini = 0.0\nsamples = 2\nvalue = [0, 0, 2, 0, 0, 0, 0, 0, 0, 0, 0]\nclass = y[2]", fillcolor="#8fe539"] ;
114 -> 115 ;
116 [label="ndvi_mean <= 9114.0\ngini = 0.5\nsamples = 2\nvalue = [0, 0, 0, 0, 1, 0, 0, 0, 1, 0, 0]\nclass = y[4]", fillcolor="#ffffff"] ;
114 -> 116 ;
117 [label="gini = 0.0\nsamples = 1\nvalue = [0, 0, 0, 0, 1, 0, 0, 0, 0, 0, 0]\nclass = y[4]", fillcolor="#39e59d"] ;
116 -> 117 ;
118 [label="gini = 0.0\nsamples = 1\nvalue = [0, 0, 0, 0, 0, 0, 0, 0, 1, 0, 0]\nclass = y[8]", fillcolor="#bd39e5"] ;
116 -> 118 ;
119 [label="gini = 0.0\nsamples = 1\nvalue = [0, 0, 0, 0, 0, 0, 2, 0, 0, 0, 0]\nclass = y[6]", fillcolor="#396fe5"] ;
113 -> 119 ;
120 [label="ndvi_mean <= 9032.0\ngini = 0.32\nsamples = 4\nvalue = [4, 0, 0, 0, 0, 0, 0, 0, 0, 1, 0]\nclass = y[0]", fillcolor="#eca06a"] ;
112 -> 120 ;
121 [label="gini = 0.0\nsamples = 2\nvalue = [3, 0, 0, 0, 0, 0, 0, 0, 0, 0, 0]\nclass = y[0]", fillcolor="#e58139"] ;
120 -> 121 ;
122 [label="VH_mean <= -1451.0\ngini = 0.5\nsamples = 2\nvalue = [1, 0, 0, 0, 0, 0, 0, 0, 0, 1, 0]\nclass = y[0]", fillcolor="#ffffff"] ;
120 -> 122 ;
123 [label="gini = 0.0\nsamples = 1\nvalue = [0, 0, 0, 0, 0, 0, 0, 0, 0, 1, 0]\nclass = y[9]", fillcolor="#e539ae"] ;
122 -> 123 ;
124 [label="gini = 0.0\nsamples = 1\nvalue = [1, 0, 0, 0, 0, 0, 0, 0, 0, 0, 0]\nclass = y[0]", fillcolor="#e58139"] ;
122 -> 124 ;
125 [label="B8_phase <= 8167.0\ngini = 0.219\nsamples = 6\nvalue = [7, 0, 0, 0, 0, 0, 1, 0, 0, 0, 0]\nclass = y[0]", fillcolor="#e99355"] ;
101 -> 125 ;
126 [label="gini = 0.0\nsamples = 4\nvalue = [6, 0, 0, 0, 0, 0, 0, 0, 0, 0, 0]\nclass = y[0]", fillcolor="#e58139"] ;
125 -> 126 ;
127 [label="B8_mean <= 6431.5\ngini = 0.5\nsamples = 2\nvalue = [1, 0, 0, 0, 0, 0, 1, 0, 0, 0, 0]\nclass = y[0]", fillcolor="#ffffff"] ;
125 -> 127 ;
128 [label="gini = 0.0\nsamples = 1\nvalue = [1, 0, 0, 0, 0, 0, 0, 0, 0, 0, 0]\nclass = y[0]", fillcolor="#e58139"] ;
127 -> 128 ;
129 [label="gini = 0.0\nsamples = 1\nvalue = [0, 0, 0, 0, 0, 0, 1, 0, 0, 0, 0]\nclass = y[6]", fillcolor="#396fe5"] ;
127 -> 129 ;
130 [label="VH_mean <= -1413.5\ngini = 0.526\nsamples = 13\nvalue = [15, 4, 0, 0, 0, 1, 0, 0, 0, 3, 0]\nclass = y[0]", fillcolor="#f0b68c"] ;
98 -> 130 ;
131 [label="B8_phase <= 7394.0\ngini = 0.458\nsamples = 11\nvalue = [15, 2, 0, 0, 0, 1, 0, 0, 0, 3, 0]\nclass = y[0]", fillcolor="#eeab7b"] ;
130 -> 131 ;
132 [label="elevation <= 282.5\ngini = 0.349\nsamples = 10\nvalue = [15, 0, 0, 0, 0, 1, 0, 0, 0, 3, 0]\nclass = y[0]", fillcolor="#eca06a"] ;
131 -> 132 ;
133 [label="B8_slope <= 123.5\ngini = 0.611\nsamples = 3\nvalue = [2, 0, 0, 0, 0, 1, 0, 0, 0, 3, 0]\nclass = y[9]", fillcolor="#f8ceeb"] ;
132 -> 133 ;
134 [label="ndvi_mean <= 8378.5\ngini = 0.444\nsamples = 2\nvalue = [2, 0, 0, 0, 0, 1, 0, 0, 0, 0, 0]\nclass = y[0]", fillcolor="#f2c09c"] ;
133 -> 134 ;
135 [label="gini = 0.0\nsamples = 1\nvalue = [0, 0, 0, 0, 0, 1, 0, 0, 0, 0, 0]\nclass = y[5]", fillcolor="#39cee5"] ;
134 -> 135 ;
136 [label="gini = 0.0\nsamples = 1\nvalue = [2, 0, 0, 0, 0, 0, 0, 0, 0, 0, 0]\nclass = y[0]", fillcolor="#e58139"] ;
134 -> 136 ;
137 [label="gini = 0.0\nsamples = 1\nvalue = [0, 0, 0, 0, 0, 0, 0, 0, 0, 3, 0]\nclass = y[9]", fillcolor="#e539ae"] ;
133 -> 137 ;
138 [label="gini = 0.0\nsamples = 7\nvalue = [13, 0, 0, 0, 0, 0, 0, 0, 0, 0, 0]\nclass = y[0]", fillcolor="#e58139"] ;
132 -> 138 ;
139 [label="gini = 0.0\nsamples = 1\nvalue = [0, 2, 0, 0, 0, 0, 0, 0, 0, 0, 0]\nclass = y[1]", fillcolor="#e5dc39"] ;
131 -> 139 ;
140 [label="gini = 0.0\nsamples = 2\nvalue = [0, 2, 0, 0, 0, 0, 0, 0, 0, 0, 0]\nclass = y[1]", fillcolor="#e5dc39"] ;
130 -> 140 ;
141 [label="VH_mean <= -2531.5\ngini = 0.114\nsamples = 271\nvalue = [381.0, 5.0, 0.0, 0.0, 4.0, 5.0, 7.0, 2.0, 1.0, 0.0\n0.0]\nclass = y[0]", fillcolor="#e78945"] ;
3 -> 141 ;
142 [label="gini = 0.0\nsamples = 1\nvalue = [0, 0, 0, 0, 0, 0, 0, 0, 1, 0, 0]\nclass = y[8]", fillcolor="#bd39e5"] ;
141 -> 142 ;
143 [label="ndvi_mean <= 9006.5\ngini = 0.11\nsamples = 270\nvalue = [381.0, 5.0, 0.0, 0.0, 4.0, 5.0, 7.0, 2.0, 0.0, 0.0\n0.0]\nclass = y[0]", fillcolor="#e78844"] ;
141 -> 143 ;
144 [label="VH_mean <= -1290.0\ngini = 0.084\nsamples = 200\nvalue = [289, 5, 0, 0, 4, 2, 0, 2, 0, 0, 0]\nclass = y[0]", fillcolor="#e68742"] ;
143 -> 144 ;
145 [label="VV_mean <= -1200.0\ngini = 0.068\nsamples = 193\nvalue = [279, 5, 0, 0, 1, 2, 0, 2, 0, 0, 0]\nclass = y[0]", fillcolor="#e68540"] ;
144 -> 145 ;
146 [label="B8_phase <= 363.5\ngini = 0.203\nsamples = 18\nvalue = [24, 1, 0, 0, 0, 0, 0, 2, 0, 0, 0]\nclass = y[0]", fillcolor="#e89051"] ;
145 -> 146 ;
147 [label="gini = 0.0\nsamples = 1\nvalue = [0, 0, 0, 0, 0, 0, 0, 2, 0, 0, 0]\nclass = y[7]", fillcolor="#6139e5"] ;
146 -> 147 ;
148 [label="B8_slope <= 75.0\ngini = 0.077\nsamples = 17\nvalue = [24, 1, 0, 0, 0, 0, 0, 0, 0, 0, 0]\nclass = y[0]", fillcolor="#e68641"] ;
146 -> 148 ;
149 [label="gini = 0.0\nsamples = 12\nvalue = [20, 0, 0, 0, 0, 0, 0, 0, 0, 0, 0]\nclass = y[0]", fillcolor="#e58139"] ;
148 -> 149 ;
150 [label="B8_slope <= 99.0\ngini = 0.32\nsamples = 5\nvalue = [4, 1, 0, 0, 0, 0, 0, 0, 0, 0, 0]\nclass = y[0]", fillcolor="#eca06a"] ;
148 -> 150 ;
151 [label="gini = 0.0\nsamples = 1\nvalue = [0, 1, 0, 0, 0, 0, 0, 0, 0, 0, 0]\nclass = y[1]", fillcolor="#e5dc39"] ;
150 -> 151 ;
152 [label="gini = 0.0\nsamples = 4\nvalue = [4, 0, 0, 0, 0, 0, 0, 0, 0, 0, 0]\nclass = y[0]", fillcolor="#e58139"] ;
150 -> 152 ;
153 [label="elevation <= 62.0\ngini = 0.052\nsamples = 175\nvalue = [255, 4, 0, 0, 1, 2, 0, 0, 0, 0, 0]\nclass = y[0]", fillcolor="#e6843e"] ;
145 -> 153 ;
154 [label="rem <= 37.5\ngini = 0.5\nsamples = 2\nvalue = [1, 0, 0, 0, 1, 0, 0, 0, 0, 0, 0]\nclass = y[0]", fillcolor="#ffffff"] ;
153 -> 154 ;
155 [label="gini = 0.0\nsamples = 1\nvalue = [0, 0, 0, 0, 1, 0, 0, 0, 0, 0, 0]\nclass = y[4]", fillcolor="#39e59d"] ;
154 -> 155 ;
156 [label="gini = 0.0\nsamples = 1\nvalue = [1, 0, 0, 0, 0, 0, 0, 0, 0, 0, 0]\nclass = y[0]", fillcolor="#e58139"] ;
154 -> 156 ;
157 [label="VV_mean <= -702.5\ngini = 0.045\nsamples = 173\nvalue = [254, 4, 0, 0, 0, 2, 0, 0, 0, 0, 0]\nclass = y[0]", fillcolor="#e6843e"] ;
153 -> 157 ;
158 [label="ndvi_mean <= 7397.5\ngini = 0.033\nsamples = 160\nvalue = [238, 3, 0, 0, 0, 1, 0, 0, 0, 0, 0]\nclass = y[0]", fillcolor="#e5833c"] ;
157 -> 158 ;
159 [label="VV_mean <= -1086.0\ngini = 0.131\nsamples = 15\nvalue = [27, 1, 0, 0, 0, 1, 0, 0, 0, 0, 0]\nclass = y[0]", fillcolor="#e78a47"] ;
158 -> 159 ;
160 [label="gini = 0.0\nsamples = 1\nvalue = [0, 1, 0, 0, 0, 0, 0, 0, 0, 0, 0]\nclass = y[1]", fillcolor="#e5dc39"] ;
159 -> 160 ;
161 [label="rem <= 85.5\ngini = 0.069\nsamples = 14\nvalue = [27, 0, 0, 0, 0, 1, 0, 0, 0, 0, 0]\nclass = y[0]", fillcolor="#e68640"] ;
159 -> 161 ;
162 [label="B8_mean <= 4426.0\ngini = 0.32\nsamples = 3\nvalue = [4, 0, 0, 0, 0, 1, 0, 0, 0, 0, 0]\nclass = y[0]", fillcolor="#eca06a"] ;
161 -> 162 ;
163 [label="gini = 0.0\nsamples = 1\nvalue = [0, 0, 0, 0, 0, 1, 0, 0, 0, 0, 0]\nclass = y[5]", fillcolor="#39cee5"] ;
162 -> 163 ;
164 [label="gini = 0.0\nsamples = 2\nvalue = [4, 0, 0, 0, 0, 0, 0, 0, 0, 0, 0]\nclass = y[0]", fillcolor="#e58139"] ;
162 -> 164 ;
165 [label="gini = 0.0\nsamples = 11\nvalue = [23, 0, 0, 0, 0, 0, 0, 0, 0, 0, 0]\nclass = y[0]", fillcolor="#e58139"] ;
161 -> 165 ;
166 [label="B8_slope <= 424.5\ngini = 0.019\nsamples = 145\nvalue = [211, 2, 0, 0, 0, 0, 0, 0, 0, 0, 0]\nclass = y[0]", fillcolor="#e5823b"] ;
158 -> 166 ;
167 [label="B8_mean <= 7135.0\ngini = 0.01\nsamples = 141\nvalue = [208, 1, 0, 0, 0, 0, 0, 0, 0, 0, 0]\nclass = y[0]", fillcolor="#e5823a"] ;
166 -> 167 ;
168 [label="gini = 0.0\nsamples = 116\nvalue = [177, 0, 0, 0, 0, 0, 0, 0, 0, 0, 0]\nclass = y[0]", fillcolor="#e58139"] ;
167 -> 168 ;
169 [label="ndvi_mean <= 8667.5\ngini = 0.061\nsamples = 25\nvalue = [31, 1, 0, 0, 0, 0, 0, 0, 0, 0, 0]\nclass = y[0]", fillcolor="#e6853f"] ;
167 -> 169 ;
170 [label="B4_mean <= 1139.0\ngini = 0.142\nsamples = 12\nvalue = [12, 1, 0, 0, 0, 0, 0, 0, 0, 0, 0]\nclass = y[0]", fillcolor="#e78c49"] ;
169 -> 170 ;
171 [label="gini = 0.0\nsamples = 1\nvalue = [0, 1, 0, 0, 0, 0, 0, 0, 0, 0, 0]\nclass = y[1]", fillcolor="#e5dc39"] ;
170 -> 171 ;
172 [label="gini = 0.0\nsamples = 11\nvalue = [12, 0, 0, 0, 0, 0, 0, 0, 0, 0, 0]\nclass = y[0]", fillcolor="#e58139"] ;
170 -> 172 ;
173 [label="gini = 0.0\nsamples = 13\nvalue = [19, 0, 0, 0, 0, 0, 0, 0, 0, 0, 0]\nclass = y[0]", fillcolor="#e58139"] ;
169 -> 173 ;
174 [label="B12_mean <= 2483.0\ngini = 0.375\nsamples = 4\nvalue = [3, 1, 0, 0, 0, 0, 0, 0, 0, 0, 0]\nclass = y[0]", fillcolor="#eeab7b"] ;
166 -> 174 ;
175 [label="gini = 0.0\nsamples = 1\nvalue = [0, 1, 0, 0, 0, 0, 0, 0, 0, 0, 0]\nclass = y[1]", fillcolor="#e5dc39"] ;
174 -> 175 ;
176 [label="gini = 0.0\nsamples = 3\nvalue = [3, 0, 0, 0, 0, 0, 0, 0, 0, 0, 0]\nclass = y[0]", fillcolor="#e58139"] ;
174 -> 176 ;
177 [label="B8_phase <= 4080.0\ngini = 0.204\nsamples = 13\nvalue = [16, 1, 0, 0, 0, 1, 0, 0, 0, 0, 0]\nclass = y[0]", fillcolor="#e89050"] ;
157 -> 177 ;
178 [label="gini = 0.0\nsamples = 8\nvalue = [13, 0, 0, 0, 0, 0, 0, 0, 0, 0, 0]\nclass = y[0]", fillcolor="#e58139"] ;
177 -> 178 ;
179 [label="B4_mean <= 1117.5\ngini = 0.56\nsamples = 5\nvalue = [3, 1, 0, 0, 0, 1, 0, 0, 0, 0, 0]\nclass = y[0]", fillcolor="#f2c09c"] ;
177 -> 179 ;
180 [label="VV_mean <= -699.0\ngini = 0.375\nsamples = 4\nvalue = [3, 0, 0, 0, 0, 1, 0, 0, 0, 0, 0]\nclass = y[0]", fillcolor="#eeab7b"] ;
179 -> 180 ;
181 [label="gini = 0.0\nsamples = 1\nvalue = [0, 0, 0, 0, 0, 1, 0, 0, 0, 0, 0]\nclass = y[5]", fillcolor="#39cee5"] ;
180 -> 181 ;
182 [label="gini = 0.0\nsamples = 3\nvalue = [3, 0, 0, 0, 0, 0, 0, 0, 0, 0, 0]\nclass = y[0]", fillcolor="#e58139"] ;
180 -> 182 ;
183 [label="gini = 0.0\nsamples = 1\nvalue = [0, 1, 0, 0, 0, 0, 0, 0, 0, 0, 0]\nclass = y[1]", fillcolor="#e5dc39"] ;
179 -> 183 ;
184 [label="B12_mean <= 1637.5\ngini = 0.355\nsamples = 7\nvalue = [10, 0, 0, 0, 3, 0, 0, 0, 0, 0, 0]\nclass = y[0]", fillcolor="#eda774"] ;
144 -> 184 ;
185 [label="rem <= 39.0\ngini = 0.49\nsamples = 3\nvalue = [4, 0, 0, 0, 3, 0, 0, 0, 0, 0, 0]\nclass = y[0]", fillcolor="#f8e0ce"] ;
184 -> 185 ;
186 [label="gini = 0.0\nsamples = 1\nvalue = [0, 0, 0, 0, 3, 0, 0, 0, 0, 0, 0]\nclass = y[4]", fillcolor="#39e59d"] ;
185 -> 186 ;
187 [label="gini = 0.0\nsamples = 2\nvalue = [4, 0, 0, 0, 0, 0, 0, 0, 0, 0, 0]\nclass = y[0]", fillcolor="#e58139"] ;
185 -> 187 ;
188 [label="gini = 0.0\nsamples = 4\nvalue = [6, 0, 0, 0, 0, 0, 0, 0, 0, 0, 0]\nclass = y[0]", fillcolor="#e58139"] ;
184 -> 188 ;
189 [label="B8_phase <= 8069.5\ngini = 0.181\nsamples = 70\nvalue = [92.0, 0.0, 0.0, 0.0, 0.0, 3.0, 7.0, 0.0, 0.0, 0.0\n0.0]\nclass = y[0]", fillcolor="#e88e4e"] ;
143 -> 189 ;
190 [label="ndvi_mean <= 9066.0\ngini = 0.048\nsamples = 57\nvalue = [79, 0, 0, 0, 0, 0, 2, 0, 0, 0, 0]\nclass = y[0]", fillcolor="#e6843e"] ;
189 -> 190 ;
191 [label="gini = 0.0\nsamples = 33\nvalue = [49, 0, 0, 0, 0, 0, 0, 0, 0, 0, 0]\nclass = y[0]", fillcolor="#e58139"] ;
190 -> 191 ;
192 [label="rem <= 32.5\ngini = 0.117\nsamples = 24\nvalue = [30, 0, 0, 0, 0, 0, 2, 0, 0, 0, 0]\nclass = y[0]", fillcolor="#e78946"] ;
190 -> 192 ;
193 [label="B8_phase <= 3723.5\ngini = 0.444\nsamples = 2\nvalue = [1, 0, 0, 0, 0, 0, 2, 0, 0, 0, 0]\nclass = y[6]", fillcolor="#9cb7f2"] ;
192 -> 193 ;
194 [label="gini = 0.0\nsamples = 1\nvalue = [1, 0, 0, 0, 0, 0, 0, 0, 0, 0, 0]\nclass = y[0]", fillcolor="#e58139"] ;
193 -> 194 ;
195 [label="gini = 0.0\nsamples = 1\nvalue = [0, 0, 0, 0, 0, 0, 2, 0, 0, 0, 0]\nclass = y[6]", fillcolor="#396fe5"] ;
193 -> 195 ;
196 [label="gini = 0.0\nsamples = 22\nvalue = [29, 0, 0, 0, 0, 0, 0, 0, 0, 0, 0]\nclass = y[0]", fillcolor="#e58139"] ;
192 -> 196 ;
197 [label="B4_mean <= 676.0\ngini = 0.54\nsamples = 13\nvalue = [13, 0, 0, 0, 0, 3, 5, 0, 0, 0, 0]\nclass = y[0]", fillcolor="#f2c09c"] ;
189 -> 197 ;
198 [label="gini = 0.0\nsamples = 6\nvalue = [10, 0, 0, 0, 0, 0, 0, 0, 0, 0, 0]\nclass = y[0]", fillcolor="#e58139"] ;
197 -> 198 ;
199 [label="B12_mean <= 1571.0\ngini = 0.645\nsamples = 7\nvalue = [3, 0, 0, 0, 0, 3, 5, 0, 0, 0, 0]\nclass = y[6]", fillcolor="#cedbf8"] ;
197 -> 199 ;
200 [label="gini = 0.0\nsamples = 3\nvalue = [0, 0, 0, 0, 0, 0, 5, 0, 0, 0, 0]\nclass = y[6]", fillcolor="#396fe5"] ;
199 -> 200 ;
201 [label="VH_mean <= -1397.5\ngini = 0.5\nsamples = 4\nvalue = [3, 0, 0, 0, 0, 3, 0, 0, 0, 0, 0]\nclass = y[0]", fillcolor="#ffffff"] ;
199 -> 201 ;
202 [label="gini = 0.0\nsamples = 3\nvalue = [3, 0, 0, 0, 0, 0, 0, 0, 0, 0, 0]\nclass = y[0]", fillcolor="#e58139"] ;
201 -> 202 ;
203 [label="gini = 0.0\nsamples = 1\nvalue = [0, 0, 0, 0, 0, 3, 0, 0, 0, 0, 0]\nclass = y[5]", fillcolor="#39cee5"] ;
201 -> 203 ;
204 [label="VH_mean <= -1050.0\ngini = 0.166\nsamples = 312\nvalue = [427, 7, 8, 0, 6, 6, 9, 2, 2, 1, 0]\nclass = y[0]", fillcolor="#e78c4b"] ;
2 -> 204 ;
205 [label="B8_phase <= 9500.5\ngini = 0.241\nsamples = 204\nvalue = [273.0, 7.0, 8.0, 0.0, 6.0, 6.0, 9.0, 2.0, 2.0, 1.0\n0.0]\nclass = y[0]", fillcolor="#e89254"] ;
204 -> 205 ;
206 [label="elevation <= 100.0\ngini = 0.2\nsamples = 176\nvalue = [243, 7, 8, 0, 4, 4, 4, 0, 1, 1, 0]\nclass = y[0]", fillcolor="#e88f4f"] ;
205 -> 206 ;
207 [label="rem <= 14.5\ngini = 0.49\nsamples = 12\nvalue = [16, 0, 6, 0, 1, 0, 1, 0, 0, 0, 0]\nclass = y[0]", fillcolor="#f1b991"] ;
206 -> 207 ;
208 [label="elevation <= 94.5\ngini = 0.406\nsamples = 5\nvalue = [0, 0, 6, 0, 1, 0, 1, 0, 0, 0, 0]\nclass = y[2]", fillcolor="#afec72"] ;
207 -> 208 ;
209 [label="ndvi_amp <= 449.5\ngini = 0.5\nsamples = 2\nvalue = [0, 0, 0, 0, 1, 0, 1, 0, 0, 0, 0]\nclass = y[4]", fillcolor="#ffffff"] ;
208 -> 209 ;
210 [label="gini = 0.0\nsamples = 1\nvalue = [0, 0, 0, 0, 0, 0, 1, 0, 0, 0, 0]\nclass = y[6]", fillcolor="#396fe5"] ;
209 -> 210 ;
211 [label="gini = 0.0\nsamples = 1\nvalue = [0, 0, 0, 0, 1, 0, 0, 0, 0, 0, 0]\nclass = y[4]", fillcolor="#39e59d"] ;
209 -> 211 ;
212 [label="gini = 0.0\nsamples = 3\nvalue = [0, 0, 6, 0, 0, 0, 0, 0, 0, 0, 0]\nclass = y[2]", fillcolor="#8fe539"] ;
208 -> 212 ;
213 [label="gini = 0.0\nsamples = 7\nvalue = [16, 0, 0, 0, 0, 0, 0, 0, 0, 0, 0]\nclass = y[0]", fillcolor="#e58139"] ;
207 -> 213 ;
214 [label="elevation <= 1103.0\ngini = 0.161\nsamples = 164\nvalue = [227, 7, 2, 0, 3, 4, 3, 0, 1, 1, 0]\nclass = y[0]", fillcolor="#e78c4a"] ;
206 -> 214 ;
215 [label="VH_mean <= -1309.0\ngini = 0.246\nsamples = 106\nvalue = [136.0, 7.0, 2.0, 0.0, 3.0, 4.0, 3.0, 0.0, 1.0, 1.0\n0.0]\nclass = y[0]", fillcolor="#e99355"] ;
214 -> 215 ;
216 [label="gini = 0.0\nsamples = 1\nvalue = [0, 0, 0, 0, 0, 1, 0, 0, 0, 0, 0]\nclass = y[5]", fillcolor="#39cee5"] ;
215 -> 216 ;
217 [label="B12_mean <= 3539.0\ngini = 0.237\nsamples = 105\nvalue = [136, 7, 2, 0, 3, 3, 3, 0, 1, 1, 0]\nclass = y[0]", fillcolor="#e89254"] ;
215 -> 217 ;
218 [label="rem <= 12.5\ngini = 0.218\nsamples = 103\nvalue = [136.0, 5.0, 2.0, 0.0, 3.0, 3.0, 3.0, 0.0, 1.0, 1.0\n0.0]\nclass = y[0]", fillcolor="#e89051"] ;
217 -> 218 ;
219 [label="B8_phase <= 3793.0\ngini = 0.625\nsamples = 12\nvalue = [9, 3, 2, 0, 0, 1, 0, 0, 1, 0, 0]\nclass = y[0]", fillcolor="#f3c5a4"] ;
218 -> 219 ;
220 [label="B8_slope <= 277.0\ngini = 0.625\nsamples = 3\nvalue = [0, 2, 0, 0, 0, 1, 0, 0, 1, 0, 0]\nclass = y[1]", fillcolor="#f6f3bd"] ;
219 -> 220 ;
221 [label="B8_slope <= 78.0\ngini = 0.5\nsamples = 2\nvalue = [0, 0, 0, 0, 0, 1, 0, 0, 1, 0, 0]\nclass = y[5]", fillcolor="#ffffff"] ;
220 -> 221 ;
222 [label="gini = 0.0\nsamples = 1\nvalue = [0, 0, 0, 0, 0, 1, 0, 0, 0, 0, 0]\nclass = y[5]", fillcolor="#39cee5"] ;
221 -> 222 ;
223 [label="gini = 0.0\nsamples = 1\nvalue = [0, 0, 0, 0, 0, 0, 0, 0, 1, 0, 0]\nclass = y[8]", fillcolor="#bd39e5"] ;
221 -> 223 ;
224 [label="gini = 0.0\nsamples = 1\nvalue = [0, 2, 0, 0, 0, 0, 0, 0, 0, 0, 0]\nclass = y[1]", fillcolor="#e5dc39"] ;
220 -> 224 ;
225 [label="rem <= 5.0\ngini = 0.403\nsamples = 9\nvalue = [9, 1, 2, 0, 0, 0, 0, 0, 0, 0, 0]\nclass = y[0]", fillcolor="#eda774"] ;
219 -> 225 ;
226 [label="gini = 0.0\nsamples = 3\nvalue = [4, 0, 0, 0, 0, 0, 0, 0, 0, 0, 0]\nclass = y[0]", fillcolor="#e58139"] ;
225 -> 226 ;
227 [label="rem <= 9.0\ngini = 0.531\nsamples = 6\nvalue = [5, 1, 2, 0, 0, 0, 0, 0, 0, 0, 0]\nclass = y[0]", fillcolor="#f2c09c"] ;
225 -> 227 ;
228 [label="B8_mean <= 6584.5\ngini = 0.625\nsamples = 4\nvalue = [1, 1, 2, 0, 0, 0, 0, 0, 0, 0, 0]\nclass = y[2]", fillcolor="#daf6bd"] ;
227 -> 228 ;
229 [label="gini = 0.0\nsamples = 2\nvalue = [0, 0, 2, 0, 0, 0, 0, 0, 0, 0, 0]\nclass = y[2]", fillcolor="#8fe539"] ;
228 -> 229 ;
230 [label="B4_mean <= 741.5\ngini = 0.5\nsamples = 2\nvalue = [1, 1, 0, 0, 0, 0, 0, 0, 0, 0, 0]\nclass = y[0]", fillcolor="#ffffff"] ;
228 -> 230 ;
231 [label="gini = 0.0\nsamples = 1\nvalue = [0, 1, 0, 0, 0, 0, 0, 0, 0, 0, 0]\nclass = y[1]", fillcolor="#e5dc39"] ;
230 -> 231 ;
232 [label="gini = 0.0\nsamples = 1\nvalue = [1, 0, 0, 0, 0, 0, 0, 0, 0, 0, 0]\nclass = y[0]", fillcolor="#e58139"] ;
230 -> 232 ;
233 [label="gini = 0.0\nsamples = 2\nvalue = [4, 0, 0, 0, 0, 0, 0, 0, 0, 0, 0]\nclass = y[0]", fillcolor="#e58139"] ;
227 -> 233 ;
234 [label="VH_mean <= -1100.5\ngini = 0.152\nsamples = 91\nvalue = [127, 2, 0, 0, 3, 2, 3, 0, 0, 1, 0]\nclass = y[0]", fillcolor="#e78b49"] ;
218 -> 234 ;
235 [label="elevation <= 1065.5\ngini = 0.089\nsamples = 74\nvalue = [104, 1, 0, 0, 0, 2, 1, 0, 0, 1, 0]\nclass = y[0]", fillcolor="#e68742"] ;
234 -> 235 ;
236 [label="rem <= 44.0\ngini = 0.072\nsamples = 73\nvalue = [104, 1, 0, 0, 0, 2, 1, 0, 0, 0, 0]\nclass = y[0]", fillcolor="#e68640"] ;
235 -> 236 ;
237 [label="elevation <= 225.0\ngini = 0.148\nsamples = 27\nvalue = [35, 0, 0, 0, 0, 2, 1, 0, 0, 0, 0]\nclass = y[0]", fillcolor="#e78c4a"] ;
236 -> 237 ;
238 [label="VV_mean <= -525.5\ngini = 0.061\nsamples = 23\nvalue = [31, 0, 0, 0, 0, 0, 1, 0, 0, 0, 0]\nclass = y[0]", fillcolor="#e6853f"] ;
237 -> 238 ;
239 [label="gini = 0.0\nsamples = 17\nvalue = [23, 0, 0, 0, 0, 0, 0, 0, 0, 0, 0]\nclass = y[0]", fillcolor="#e58139"] ;
238 -> 239 ;
240 [label="ndvi_mean <= 9062.5\ngini = 0.198\nsamples = 6\nvalue = [8, 0, 0, 0, 0, 0, 1, 0, 0, 0, 0]\nclass = y[0]", fillcolor="#e89152"] ;
238 -> 240 ;
241 [label="gini = 0.0\nsamples = 3\nvalue = [5, 0, 0, 0, 0, 0, 0, 0, 0, 0, 0]\nclass = y[0]", fillcolor="#e58139"] ;
240 -> 241 ;
242 [label="VV_mean <= -515.0\ngini = 0.375\nsamples = 3\nvalue = [3, 0, 0, 0, 0, 0, 1, 0, 0, 0, 0]\nclass = y[0]", fillcolor="#eeab7b"] ;
240 -> 242 ;
243 [label="gini = 0.0\nsamples = 1\nvalue = [0, 0, 0, 0, 0, 0, 1, 0, 0, 0, 0]\nclass = y[6]", fillcolor="#396fe5"] ;
242 -> 243 ;
244 [label="gini = 0.0\nsamples = 2\nvalue = [3, 0, 0, 0, 0, 0, 0, 0, 0, 0, 0]\nclass = y[0]", fillcolor="#e58139"] ;
242 -> 244 ;
245 [label="B12_mean <= 1721.5\ngini = 0.444\nsamples = 4\nvalue = [4, 0, 0, 0, 0, 2, 0, 0, 0, 0, 0]\nclass = y[0]", fillcolor="#f2c09c"] ;
237 -> 245 ;
246 [label="gini = 0.0\nsamples = 2\nvalue = [2, 0, 0, 0, 0, 0, 0, 0, 0, 0, 0]\nclass = y[0]", fillcolor="#e58139"] ;
245 -> 246 ;
247 [label="ndvi_mean <= 8721.0\ngini = 0.5\nsamples = 2\nvalue = [2, 0, 0, 0, 0, 2, 0, 0, 0, 0, 0]\nclass = y[0]", fillcolor="#ffffff"] ;
245 -> 247 ;
248 [label="gini = 0.0\nsamples = 1\nvalue = [2, 0, 0, 0, 0, 0, 0, 0, 0, 0, 0]\nclass = y[0]", fillcolor="#e58139"] ;
247 -> 248 ;
249 [label="gini = 0.0\nsamples = 1\nvalue = [0, 0, 0, 0, 0, 2, 0, 0, 0, 0, 0]\nclass = y[5]", fillcolor="#39cee5"] ;
247 -> 249 ;
250 [label="B8_phase <= 1478.5\ngini = 0.028\nsamples = 46\nvalue = [69, 1, 0, 0, 0, 0, 0, 0, 0, 0, 0]\nclass = y[0]", fillcolor="#e5833c"] ;
236 -> 250 ;
251 [label="ndvi_amp <= 2196.5\ngini = 0.18\nsamples = 7\nvalue = [9, 1, 0, 0, 0, 0, 0, 0, 0, 0, 0]\nclass = y[0]", fillcolor="#e88f4f"] ;
250 -> 251 ;
252 [label="gini = 0.0\nsamples = 6\nvalue = [9, 0, 0, 0, 0, 0, 0, 0, 0, 0, 0]\nclass = y[0]", fillcolor="#e58139"] ;
251 -> 252 ;
253 [label="gini = 0.0\nsamples = 1\nvalue = [0, 1, 0, 0, 0, 0, 0, 0, 0, 0, 0]\nclass = y[1]", fillcolor="#e5dc39"] ;
251 -> 253 ;
254 [label="gini = 0.0\nsamples = 39\nvalue = [60, 0, 0, 0, 0, 0, 0, 0, 0, 0, 0]\nclass = y[0]", fillcolor="#e58139"] ;
250 -> 254 ;
255 [label="gini = 0.0\nsamples = 1\nvalue = [0, 0, 0, 0, 0, 0, 0, 0, 0, 1, 0]\nclass = y[9]", fillcolor="#e539ae"] ;
235 -> 255 ;
256 [label="B4_mean <= 655.0\ngini = 0.354\nsamples = 17\nvalue = [23, 1, 0, 0, 3, 0, 2, 0, 0, 0, 0]\nclass = y[0]", fillcolor="#eb9e67"] ;
234 -> 256 ;
257 [label="gini = 0.0\nsamples = 2\nvalue = [0, 0, 0, 0, 3, 0, 0, 0, 0, 0, 0]\nclass = y[4]", fillcolor="#39e59d"] ;
256 -> 257 ;
258 [label="B12_mean <= 1455.5\ngini = 0.21\nsamples = 15\nvalue = [23, 1, 0, 0, 0, 0, 2, 0, 0, 0, 0]\nclass = y[0]", fillcolor="#e89152"] ;
256 -> 258 ;
259 [label="elevation <= 184.5\ngini = 0.444\nsamples = 3\nvalue = [4, 0, 0, 0, 0, 0, 2, 0, 0, 0, 0]\nclass = y[0]", fillcolor="#f2c09c"] ;
258 -> 259 ;
260 [label="gini = 0.0\nsamples = 1\nvalue = [0, 0, 0, 0, 0, 0, 2, 0, 0, 0, 0]\nclass = y[6]", fillcolor="#396fe5"] ;
259 -> 260 ;
261 [label="gini = 0.0\nsamples = 2\nvalue = [4, 0, 0, 0, 0, 0, 0, 0, 0, 0, 0]\nclass = y[0]", fillcolor="#e58139"] ;
259 -> 261 ;
262 [label="B8_slope <= 55.0\ngini = 0.095\nsamples = 12\nvalue = [19, 1, 0, 0, 0, 0, 0, 0, 0, 0, 0]\nclass = y[0]", fillcolor="#e68843"] ;
258 -> 262 ;
263 [label="B8_phase <= 5335.5\ngini = 0.245\nsamples = 4\nvalue = [6, 1, 0, 0, 0, 0, 0, 0, 0, 0, 0]\nclass = y[0]", fillcolor="#e9965a"] ;
262 -> 263 ;
264 [label="gini = 0.0\nsamples = 3\nvalue = [6, 0, 0, 0, 0, 0, 0, 0, 0, 0, 0]\nclass = y[0]", fillcolor="#e58139"] ;
263 -> 264 ;
265 [label="gini = 0.0\nsamples = 1\nvalue = [0, 1, 0, 0, 0, 0, 0, 0, 0, 0, 0]\nclass = y[1]", fillcolor="#e5dc39"] ;
263 -> 265 ;
266 [label="gini = 0.0\nsamples = 8\nvalue = [13, 0, 0, 0, 0, 0, 0, 0, 0, 0, 0]\nclass = y[0]", fillcolor="#e58139"] ;
262 -> 266 ;
267 [label="gini = 0.0\nsamples = 2\nvalue = [0, 2, 0, 0, 0, 0, 0, 0, 0, 0, 0]\nclass = y[1]", fillcolor="#e5dc39"] ;
217 -> 267 ;
268 [label="gini = 0.0\nsamples = 58\nvalue = [91, 0, 0, 0, 0, 0, 0, 0, 0, 0, 0]\nclass = y[0]", fillcolor="#e58139"] ;
214 -> 268 ;
269 [label="rem <= 13.5\ngini = 0.468\nsamples = 28\nvalue = [30, 0, 0, 0, 2, 2, 5, 2, 1, 0, 0]\nclass = y[0]", fillcolor="#edaa79"] ;
205 -> 269 ;
270 [label="B8_slope <= 26.5\ngini = 0.531\nsamples = 4\nvalue = [0, 0, 0, 0, 0, 0, 5, 2, 1, 0, 0]\nclass = y[6]", fillcolor="#9cb7f2"] ;
269 -> 270 ;
271 [label="B8_slope <= -1.5\ngini = 0.444\nsamples = 2\nvalue = [0, 0, 0, 0, 0, 0, 0, 2, 1, 0, 0]\nclass = y[7]", fillcolor="#b09cf2"] ;
270 -> 271 ;
272 [label="gini = 0.0\nsamples = 1\nvalue = [0, 0, 0, 0, 0, 0, 0, 0, 1, 0, 0]\nclass = y[8]", fillcolor="#bd39e5"] ;
271 -> 272 ;
273 [label="gini = 0.0\nsamples = 1\nvalue = [0, 0, 0, 0, 0, 0, 0, 2, 0, 0, 0]\nclass = y[7]", fillcolor="#6139e5"] ;
271 -> 273 ;
274 [label="gini = 0.0\nsamples = 2\nvalue = [0, 0, 0, 0, 0, 0, 5, 0, 0, 0, 0]\nclass = y[6]", fillcolor="#396fe5"] ;
270 -> 274 ;
275 [label="VH_mean <= -1298.0\ngini = 0.215\nsamples = 24\nvalue = [30, 0, 0, 0, 2, 2, 0, 0, 0, 0, 0]\nclass = y[0]", fillcolor="#e89152"] ;
269 -> 275 ;
276 [label="ndvi_mean <= 7771.0\ngini = 0.444\nsamples = 2\nvalue = [1, 0, 0, 0, 2, 0, 0, 0, 0, 0, 0]\nclass = y[4]", fillcolor="#9cf2ce"] ;
275 -> 276 ;
277 [label="gini = 0.0\nsamples = 1\nvalue = [1, 0, 0, 0, 0, 0, 0, 0, 0, 0, 0]\nclass = y[0]", fillcolor="#e58139"] ;
276 -> 277 ;
278 [label="gini = 0.0\nsamples = 1\nvalue = [0, 0, 0, 0, 2, 0, 0, 0, 0, 0, 0]\nclass = y[4]", fillcolor="#39e59d"] ;
276 -> 278 ;
279 [label="rem <= 16.5\ngini = 0.121\nsamples = 22\nvalue = [29, 0, 0, 0, 0, 2, 0, 0, 0, 0, 0]\nclass = y[0]", fillcolor="#e78a47"] ;
275 -> 279 ;
280 [label="elevation <= 186.0\ngini = 0.444\nsamples = 2\nvalue = [1, 0, 0, 0, 0, 2, 0, 0, 0, 0, 0]\nclass = y[5]", fillcolor="#9ce6f2"] ;
279 -> 280 ;
281 [label="gini = 0.0\nsamples = 1\nvalue = [1, 0, 0, 0, 0, 0, 0, 0, 0, 0, 0]\nclass = y[0]", fillcolor="#e58139"] ;
280 -> 281 ;
282 [label="gini = 0.0\nsamples = 1\nvalue = [0, 0, 0, 0, 0, 2, 0, 0, 0, 0, 0]\nclass = y[5]", fillcolor="#39cee5"] ;
280 -> 282 ;
283 [label="gini = 0.0\nsamples = 20\nvalue = [28, 0, 0, 0, 0, 0, 0, 0, 0, 0, 0]\nclass = y[0]", fillcolor="#e58139"] ;
279 -> 283 ;
284 [label="gini = 0.0\nsamples = 108\nvalue = [154, 0, 0, 0, 0, 0, 0, 0, 0, 0, 0]\nclass = y[0]", fillcolor="#e58139"] ;
204 -> 284 ;
285 [label="B12_mean <= 1789.0\ngini = 0.664\nsamples = 1763\nvalue = [1548.0, 233.0, 347.0, 32.0, 213.0, 154.0, 113.0, 38.0\n25.0, 79.0, 34.0]\nclass = y[0]", fillcolor="#f2c29f"] ;
1 -> 285 ;
286 [label="B4_mean <= 734.5\ngini = 0.657\nsamples = 1154\nvalue = [977, 32, 344, 2, 185, 100, 113, 3, 14, 42, 5]\nclass = y[0]", fillcolor="#f4c9aa"] ;
285 -> 286 ;
287 [label="B12_mean <= 1483.0\ngini = 0.62\nsamples = 894\nvalue = [804.0, 10.0, 309.0, 0.0, 95.0, 70.0, 94.0, 3.0, 7.0\n28.0, 0.0]\nclass = y[0]", fillcolor="#f3c7a7"] ;
286 -> 287 ;
288 [label="elevation <= 144.5\ngini = 0.581\nsamples = 702\nvalue = [673.0, 5.0, 241.0, 0.0, 52.0, 44.0, 80.0, 1.0, 6.0\n15.0, 0.0]\nclass = y[0]", fillcolor="#f2c19d"] ;
287 -> 288 ;
289 [label="B12_mean <= 1305.5\ngini = 0.727\nsamples = 240\nvalue = [121, 3, 133, 0, 29, 20, 43, 1, 1, 10, 0]\nclass = y[2]", fillcolor="#f9fef5"] ;
288 -> 289 ;
290 [label="rem <= 10.5\ngini = 0.719\nsamples = 119\nvalue = [48, 0, 75, 0, 15, 16, 12, 1, 1, 7, 0]\nclass = y[2]", fillcolor="#e7f9d5"] ;
289 -> 290 ;
291 [label="B4_mean <= 654.0\ngini = 0.65\nsamples = 61\nvalue = [11.0, 0.0, 48.0, 0.0, 8.0, 6.0, 4.0, 1.0, 1.0, 7.0\n0.0]\nclass = y[2]", fillcolor="#c8f29d"] ;
290 -> 291 ;
292 [label="B8_slope <= 40.5\ngini = 0.534\nsamples = 44\nvalue = [4, 0, 40, 0, 6, 2, 3, 1, 1, 3, 0]\nclass = y[2]", fillcolor="#b8ef82"] ;
291 -> 292 ;
293 [label="ndvi_mean <= 9064.0\ngini = 0.65\nsamples = 31\nvalue = [4, 0, 24, 0, 6, 2, 2, 1, 1, 3, 0]\nclass = y[2]", fillcolor="#c9f29f"] ;
292 -> 293 ;
294 [label="B12_mean <= 651.0\ngini = 0.365\nsamples = 17\nvalue = [1, 0, 19, 0, 1, 1, 0, 0, 1, 1, 0]\nclass = y[2]", fillcolor="#a7eb64"] ;
293 -> 294 ;
295 [label="gini = 0.0\nsamples = 1\nvalue = [0, 0, 0, 0, 0, 0, 0, 0, 1, 0, 0]\nclass = y[8]", fillcolor="#bd39e5"] ;
294 -> 295 ;
296 [label="ndvi_amp <= 31.5\ngini = 0.31\nsamples = 16\nvalue = [1, 0, 19, 0, 1, 1, 0, 0, 0, 1, 0]\nclass = y[2]", fillcolor="#a3ea5d"] ;
294 -> 296 ;
297 [label="gini = 0.0\nsamples = 1\nvalue = [0, 0, 0, 0, 1, 0, 0, 0, 0, 0, 0]\nclass = y[4]", fillcolor="#39e59d"] ;
296 -> 297 ;
298 [label="B12_mean <= 1288.0\ngini = 0.248\nsamples = 15\nvalue = [1, 0, 19, 0, 0, 1, 0, 0, 0, 1, 0]\nclass = y[2]", fillcolor="#9fe955"] ;
296 -> 298 ;
299 [label="B8_phase <= 1984.5\ngini = 0.177\nsamples = 14\nvalue = [0, 0, 19, 0, 0, 1, 0, 0, 0, 1, 0]\nclass = y[2]", fillcolor="#9ae84d"] ;
298 -> 299 ;
300 [label="gini = 0.0\nsamples = 1\nvalue = [0, 0, 0, 0, 0, 0, 0, 0, 0, 1, 0]\nclass = y[9]", fillcolor="#e539ae"] ;
299 -> 300 ;
301 [label="VV_mean <= -886.5\ngini = 0.095\nsamples = 13\nvalue = [0, 0, 19, 0, 0, 1, 0, 0, 0, 0, 0]\nclass = y[2]", fillcolor="#95e643"] ;
299 -> 301 ;
302 [label="B8_phase <= 9131.0\ngini = 0.444\nsamples = 3\nvalue = [0, 0, 2, 0, 0, 1, 0, 0, 0, 0, 0]\nclass = y[2]", fillcolor="#c7f29c"] ;
301 -> 302 ;
303 [label="gini = 0.0\nsamples = 2\nvalue = [0, 0, 2, 0, 0, 0, 0, 0, 0, 0, 0]\nclass = y[2]", fillcolor="#8fe539"] ;
302 -> 303 ;
304 [label="gini = 0.0\nsamples = 1\nvalue = [0, 0, 0, 0, 0, 1, 0, 0, 0, 0, 0]\nclass = y[5]", fillcolor="#39cee5"] ;
302 -> 304 ;
305 [label="gini = 0.0\nsamples = 10\nvalue = [0, 0, 17, 0, 0, 0, 0, 0, 0, 0, 0]\nclass = y[2]", fillcolor="#8fe539"] ;
301 -> 305 ;
306 [label="gini = 0.0\nsamples = 1\nvalue = [1, 0, 0, 0, 0, 0, 0, 0, 0, 0, 0]\nclass = y[0]", fillcolor="#e58139"] ;
298 -> 306 ;
307 [label="B4_mean <= 607.5\ngini = 0.809\nsamples = 14\nvalue = [3, 0, 5, 0, 5, 1, 2, 1, 0, 2, 0]\nclass = y[2]", fillcolor="#ffffff"] ;
293 -> 307 ;
308 [label="B4_mean <= 591.0\ngini = 0.812\nsamples = 12\nvalue = [3, 0, 5, 0, 2, 1, 2, 1, 0, 2, 0]\nclass = y[2]", fillcolor="#eefbe1"] ;
307 -> 308 ;
309 [label="ndvi_amp <= 192.5\ngini = 0.776\nsamples = 10\nvalue = [3, 0, 5, 0, 2, 1, 2, 1, 0, 0, 0]\nclass = y[2]", fillcolor="#ebfadb"] ;
308 -> 309 ;
310 [label="B8_mean <= 5698.5\ngini = 0.722\nsamples = 9\nvalue = [3, 0, 5, 0, 0, 1, 2, 1, 0, 0, 0]\nclass = y[2]", fillcolor="#e6f9d3"] ;
309 -> 310 ;
311 [label="ndvi_amp <= 38.0\ngini = 0.64\nsamples = 5\nvalue = [2, 0, 0, 0, 0, 0, 2, 1, 0, 0, 0]\nclass = y[0]", fillcolor="#ffffff"] ;
310 -> 311 ;
312 [label="gini = 0.0\nsamples = 2\nvalue = [0, 0, 0, 0, 0, 0, 2, 0, 0, 0, 0]\nclass = y[6]", fillcolor="#396fe5"] ;
311 -> 312 ;
313 [label="B8_phase <= 8544.0\ngini = 0.444\nsamples = 3\nvalue = [2, 0, 0, 0, 0, 0, 0, 1, 0, 0, 0]\nclass = y[0]", fillcolor="#f2c09c"] ;
311 -> 313 ;
314 [label="gini = 0.0\nsamples = 2\nvalue = [2, 0, 0, 0, 0, 0, 0, 0, 0, 0, 0]\nclass = y[0]", fillcolor="#e58139"] ;
313 -> 314 ;
315 [label="gini = 0.0\nsamples = 1\nvalue = [0, 0, 0, 0, 0, 0, 0, 1, 0, 0, 0]\nclass = y[7]", fillcolor="#6139e5"] ;
313 -> 315 ;
316 [label="B8_mean <= 6321.0\ngini = 0.449\nsamples = 4\nvalue = [1, 0, 5, 0, 0, 1, 0, 0, 0, 0, 0]\nclass = y[2]", fillcolor="#b4ee7b"] ;
310 -> 316 ;
317 [label="gini = 0.0\nsamples = 2\nvalue = [0, 0, 5, 0, 0, 0, 0, 0, 0, 0, 0]\nclass = y[2]", fillcolor="#8fe539"] ;
316 -> 317 ;
318 [label="B8_slope <= -46.5\ngini = 0.5\nsamples = 2\nvalue = [1, 0, 0, 0, 0, 1, 0, 0, 0, 0, 0]\nclass = y[0]", fillcolor="#ffffff"] ;
316 -> 318 ;
319 [label="gini = 0.0\nsamples = 1\nvalue = [1, 0, 0, 0, 0, 0, 0, 0, 0, 0, 0]\nclass = y[0]", fillcolor="#e58139"] ;
318 -> 319 ;
320 [label="gini = 0.0\nsamples = 1\nvalue = [0, 0, 0, 0, 0, 1, 0, 0, 0, 0, 0]\nclass = y[5]", fillcolor="#39cee5"] ;
318 -> 320 ;
321 [label="gini = 0.0\nsamples = 1\nvalue = [0, 0, 0, 0, 2, 0, 0, 0, 0, 0, 0]\nclass = y[4]", fillcolor="#39e59d"] ;
309 -> 321 ;
322 [label="gini = 0.0\nsamples = 2\nvalue = [0, 0, 0, 0, 0, 0, 0, 0, 0, 2, 0]\nclass = y[9]", fillcolor="#e539ae"] ;
308 -> 322 ;
323 [label="gini = 0.0\nsamples = 2\nvalue = [0, 0, 0, 0, 3, 0, 0, 0, 0, 0, 0]\nclass = y[4]", fillcolor="#39e59d"] ;
307 -> 323 ;
324 [label="rem <= 0.5\ngini = 0.111\nsamples = 13\nvalue = [0, 0, 16, 0, 0, 0, 1, 0, 0, 0, 0]\nclass = y[2]", fillcolor="#96e745"] ;
292 -> 324 ;
325 [label="elevation <= 118.0\ngini = 0.5\nsamples = 2\nvalue = [0, 0, 1, 0, 0, 0, 1, 0, 0, 0, 0]\nclass = y[2]", fillcolor="#ffffff"] ;
324 -> 325 ;
326 [label="gini = 0.0\nsamples = 1\nvalue = [0, 0, 1, 0, 0, 0, 0, 0, 0, 0, 0]\nclass = y[2]", fillcolor="#8fe539"] ;
325 -> 326 ;
327 [label="gini = 0.0\nsamples = 1\nvalue = [0, 0, 0, 0, 0, 0, 1, 0, 0, 0, 0]\nclass = y[6]", fillcolor="#396fe5"] ;
325 -> 327 ;
328 [label="gini = 0.0\nsamples = 11\nvalue = [0, 0, 15, 0, 0, 0, 0, 0, 0, 0, 0]\nclass = y[2]", fillcolor="#8fe539"] ;
324 -> 328 ;
329 [label="B8_phase <= 1296.0\ngini = 0.778\nsamples = 17\nvalue = [7, 0, 8, 0, 2, 4, 1, 0, 0, 4, 0]\nclass = y[2]", fillcolor="#f9fef5"] ;
291 -> 329 ;
330 [label="gini = 0.0\nsamples = 2\nvalue = [0, 0, 0, 0, 0, 0, 0, 0, 0, 4, 0]\nclass = y[9]", fillcolor="#e539ae"] ;
329 -> 330 ;
331 [label="B8_mean <= 5431.0\ngini = 0.723\nsamples = 15\nvalue = [7, 0, 8, 0, 2, 4, 1, 0, 0, 0, 0]\nclass = y[2]", fillcolor="#f8fdf2"] ;
329 -> 331 ;
332 [label="gini = 0.0\nsamples = 5\nvalue = [0, 0, 7, 0, 0, 0, 0, 0, 0, 0, 0]\nclass = y[2]", fillcolor="#8fe539"] ;
331 -> 332 ;
333 [label="ndvi_mean <= 8945.5\ngini = 0.684\nsamples = 10\nvalue = [7, 0, 1, 0, 2, 4, 1, 0, 0, 0, 0]\nclass = y[0]", fillcolor="#f8ddc9"] ;
331 -> 333 ;
334 [label="gini = 0.0\nsamples = 2\nvalue = [0, 0, 0, 0, 0, 4, 0, 0, 0, 0, 0]\nclass = y[5]", fillcolor="#39cee5"] ;
333 -> 334 ;
335 [label="B8_phase <= 8139.0\ngini = 0.545\nsamples = 8\nvalue = [7, 0, 1, 0, 2, 0, 1, 0, 0, 0, 0]\nclass = y[0]", fillcolor="#f1b991"] ;
333 -> 335 ;
336 [label="B4_mean <= 666.5\ngini = 0.625\nsamples = 4\nvalue = [1, 0, 0, 0, 2, 0, 1, 0, 0, 0, 0]\nclass = y[4]", fillcolor="#bdf6de"] ;
335 -> 336 ;
337 [label="B8_slope <= 8.0\ngini = 0.444\nsamples = 3\nvalue = [0, 0, 0, 0, 2, 0, 1, 0, 0, 0, 0]\nclass = y[4]", fillcolor="#9cf2ce"] ;
336 -> 337 ;
338 [label="gini = 0.0\nsamples = 2\nvalue = [0, 0, 0, 0, 2, 0, 0, 0, 0, 0, 0]\nclass = y[4]", fillcolor="#39e59d"] ;
337 -> 338 ;
339 [label="gini = 0.0\nsamples = 1\nvalue = [0, 0, 0, 0, 0, 0, 1, 0, 0, 0, 0]\nclass = y[6]", fillcolor="#396fe5"] ;
337 -> 339 ;
340 [label="gini = 0.0\nsamples = 1\nvalue = [1, 0, 0, 0, 0, 0, 0, 0, 0, 0, 0]\nclass = y[0]", fillcolor="#e58139"] ;
336 -> 340 ;
341 [label="VV_mean <= -829.0\ngini = 0.245\nsamples = 4\nvalue = [6, 0, 1, 0, 0, 0, 0, 0, 0, 0, 0]\nclass = y[0]", fillcolor="#e9965a"] ;
335 -> 341 ;
342 [label="gini = 0.0\nsamples = 1\nvalue = [0, 0, 1, 0, 0, 0, 0, 0, 0, 0, 0]\nclass = y[2]", fillcolor="#8fe539"] ;
341 -> 342 ;
343 [label="gini = 0.0\nsamples = 3\nvalue = [6, 0, 0, 0, 0, 0, 0, 0, 0, 0, 0]\nclass = y[0]", fillcolor="#e58139"] ;
341 -> 343 ;
344 [label="VV_mean <= -848.0\ngini = 0.708\nsamples = 58\nvalue = [37, 0, 27, 0, 7, 10, 8, 0, 0, 0, 0]\nclass = y[0]", fillcolor="#fbebdf"] ;
290 -> 344 ;
345 [label="elevation <= 124.0\ngini = 0.562\nsamples = 23\nvalue = [22, 0, 3, 0, 2, 6, 2, 0, 0, 0, 0]\nclass = y[0]", fillcolor="#f1b992"] ;
344 -> 345 ;
346 [label="elevation <= 104.0\ngini = 0.277\nsamples = 12\nvalue = [16, 0, 2, 0, 1, 0, 0, 0, 0, 0, 0]\nclass = y[0]", fillcolor="#ea975c"] ;
345 -> 346 ;
347 [label="gini = 0.0\nsamples = 1\nvalue = [0, 0, 2, 0, 0, 0, 0, 0, 0, 0, 0]\nclass = y[2]", fillcolor="#8fe539"] ;
346 -> 347 ;
348 [label="ndvi_mean <= 8978.0\ngini = 0.111\nsamples = 11\nvalue = [16, 0, 0, 0, 1, 0, 0, 0, 0, 0, 0]\nclass = y[0]", fillcolor="#e78945"] ;
346 -> 348 ;
349 [label="elevation <= 107.5\ngini = 0.375\nsamples = 3\nvalue = [3, 0, 0, 0, 1, 0, 0, 0, 0, 0, 0]\nclass = y[0]", fillcolor="#eeab7b"] ;
348 -> 349 ;
350 [label="gini = 0.0\nsamples = 1\nvalue = [0, 0, 0, 0, 1, 0, 0, 0, 0, 0, 0]\nclass = y[4]", fillcolor="#39e59d"] ;
349 -> 350 ;
351 [label="gini = 0.0\nsamples = 2\nvalue = [3, 0, 0, 0, 0, 0, 0, 0, 0, 0, 0]\nclass = y[0]", fillcolor="#e58139"] ;
349 -> 351 ;
352 [label="gini = 0.0\nsamples = 8\nvalue = [13, 0, 0, 0, 0, 0, 0, 0, 0, 0, 0]\nclass = y[0]", fillcolor="#e58139"] ;
348 -> 352 ;
353 [label="VV_mean <= -910.5\ngini = 0.695\nsamples = 11\nvalue = [6, 0, 1, 0, 1, 6, 2, 0, 0, 0, 0]\nclass = y[0]", fillcolor="#ffffff"] ;
345 -> 353 ;
354 [label="rem <= 24.5\ngini = 0.531\nsamples = 5\nvalue = [0, 0, 1, 0, 0, 5, 2, 0, 0, 0, 0]\nclass = y[5]", fillcolor="#9ce6f2"] ;
353 -> 354 ;
355 [label="gini = 0.0\nsamples = 3\nvalue = [0, 0, 0, 0, 0, 5, 0, 0, 0, 0, 0]\nclass = y[5]", fillcolor="#39cee5"] ;
354 -> 355 ;
356 [label="ndvi_amp <= 166.0\ngini = 0.444\nsamples = 2\nvalue = [0, 0, 1, 0, 0, 0, 2, 0, 0, 0, 0]\nclass = y[6]", fillcolor="#9cb7f2"] ;
354 -> 356 ;
357 [label="gini = 0.0\nsamples = 1\nvalue = [0, 0, 0, 0, 0, 0, 2, 0, 0, 0, 0]\nclass = y[6]", fillcolor="#396fe5"] ;
356 -> 357 ;
358 [label="gini = 0.0\nsamples = 1\nvalue = [0, 0, 1, 0, 0, 0, 0, 0, 0, 0, 0]\nclass = y[2]", fillcolor="#8fe539"] ;
356 -> 358 ;
359 [label="rem <= 25.5\ngini = 0.406\nsamples = 6\nvalue = [6, 0, 0, 0, 1, 1, 0, 0, 0, 0, 0]\nclass = y[0]", fillcolor="#eca572"] ;
353 -> 359 ;
360 [label="B8_phase <= 3752.5\ngini = 0.278\nsamples = 4\nvalue = [5, 0, 0, 0, 0, 1, 0, 0, 0, 0, 0]\nclass = y[0]", fillcolor="#ea9a61"] ;
359 -> 360 ;
361 [label="gini = 0.0\nsamples = 1\nvalue = [3, 0, 0, 0, 0, 0, 0, 0, 0, 0, 0]\nclass = y[0]", fillcolor="#e58139"] ;
360 -> 361 ;
362 [label="ndvi_mean <= 9007.0\ngini = 0.444\nsamples = 3\nvalue = [2, 0, 0, 0, 0, 1, 0, 0, 0, 0, 0]\nclass = y[0]", fillcolor="#f2c09c"] ;
360 -> 362 ;
363 [label="gini = 0.0\nsamples = 2\nvalue = [2, 0, 0, 0, 0, 0, 0, 0, 0, 0, 0]\nclass = y[0]", fillcolor="#e58139"] ;
362 -> 363 ;
364 [label="gini = 0.0\nsamples = 1\nvalue = [0, 0, 0, 0, 0, 1, 0, 0, 0, 0, 0]\nclass = y[5]", fillcolor="#39cee5"] ;
362 -> 364 ;
365 [label="B12_mean <= 1133.0\ngini = 0.5\nsamples = 2\nvalue = [1, 0, 0, 0, 1, 0, 0, 0, 0, 0, 0]\nclass = y[0]", fillcolor="#ffffff"] ;
359 -> 365 ;
366 [label="gini = 0.0\nsamples = 1\nvalue = [0, 0, 0, 0, 1, 0, 0, 0, 0, 0, 0]\nclass = y[4]", fillcolor="#39e59d"] ;
365 -> 366 ;
367 [label="gini = 0.0\nsamples = 1\nvalue = [1, 0, 0, 0, 0, 0, 0, 0, 0, 0, 0]\nclass = y[0]", fillcolor="#e58139"] ;
365 -> 367 ;
368 [label="B12_mean <= 1065.5\ngini = 0.699\nsamples = 35\nvalue = [15, 0, 24, 0, 5, 4, 6, 0, 0, 0, 0]\nclass = y[2]", fillcolor="#e5f9d1"] ;
344 -> 368 ;
369 [label="B4_mean <= 538.0\ngini = 0.469\nsamples = 3\nvalue = [0, 0, 3, 0, 0, 0, 5, 0, 0, 0, 0]\nclass = y[6]", fillcolor="#b0c5f5"] ;
368 -> 369 ;
370 [label="gini = 0.0\nsamples = 2\nvalue = [0, 0, 0, 0, 0, 0, 5, 0, 0, 0, 0]\nclass = y[6]", fillcolor="#396fe5"] ;
369 -> 370 ;
371 [label="gini = 0.0\nsamples = 1\nvalue = [0, 0, 3, 0, 0, 0, 0, 0, 0, 0, 0]\nclass = y[2]", fillcolor="#8fe539"] ;
369 -> 371 ;
372 [label="B4_mean <= 587.5\ngini = 0.665\nsamples = 32\nvalue = [15, 0, 21, 0, 5, 4, 1, 0, 0, 0, 0]\nclass = y[2]", fillcolor="#e9fad9"] ;
368 -> 372 ;
373 [label="VV_mean <= -657.0\ngini = 0.314\nsamples = 7\nvalue = [9, 0, 1, 0, 1, 0, 0, 0, 0, 0, 0]\nclass = y[0]", fillcolor="#ea9a61"] ;
372 -> 373 ;
374 [label="gini = 0.0\nsamples = 5\nvalue = [9, 0, 0, 0, 0, 0, 0, 0, 0, 0, 0]\nclass = y[0]", fillcolor="#e58139"] ;
373 -> 374 ;
375 [label="B8_phase <= 8833.5\ngini = 0.5\nsamples = 2\nvalue = [0, 0, 1, 0, 1, 0, 0, 0, 0, 0, 0]\nclass = y[2]", fillcolor="#ffffff"] ;
373 -> 375 ;
376 [label="gini = 0.0\nsamples = 1\nvalue = [0, 0, 1, 0, 0, 0, 0, 0, 0, 0, 0]\nclass = y[2]", fillcolor="#8fe539"] ;
375 -> 376 ;
377 [label="gini = 0.0\nsamples = 1\nvalue = [0, 0, 0, 0, 1, 0, 0, 0, 0, 0, 0]\nclass = y[4]", fillcolor="#39e59d"] ;
375 -> 377 ;
378 [label="B4_mean <= 662.5\ngini = 0.617\nsamples = 25\nvalue = [6, 0, 20, 0, 4, 4, 1, 0, 0, 0, 0]\nclass = y[2]", fillcolor="#c9f29f"] ;
372 -> 378 ;
379 [label="ndvi_amp <= 316.5\ngini = 0.464\nsamples = 19\nvalue = [5, 0, 19, 0, 2, 0, 1, 0, 0, 0, 0]\nclass = y[2]", fillcolor="#b8ee81"] ;
378 -> 379 ;
380 [label="twi <= 2.5\ngini = 0.381\nsamples = 18\nvalue = [5, 0, 19, 0, 0, 0, 1, 0, 0, 0, 0]\nclass = y[2]", fillcolor="#b1ed74"] ;
379 -> 380 ;
381 [label="VV_mean <= -609.0\ngini = 0.29\nsamples = 12\nvalue = [2, 0, 15, 0, 0, 0, 1, 0, 0, 0, 0]\nclass = y[2]", fillcolor="#a4ea5e"] ;
380 -> 381 ;
382 [label="B12_mean <= 1276.5\ngini = 0.117\nsamples = 10\nvalue = [1, 0, 15, 0, 0, 0, 0, 0, 0, 0, 0]\nclass = y[2]", fillcolor="#96e746"] ;
381 -> 382 ;
383 [label="gini = 0.0\nsamples = 8\nvalue = [0, 0, 14, 0, 0, 0, 0, 0, 0, 0, 0]\nclass = y[2]", fillcolor="#8fe539"] ;
382 -> 383 ;
384 [label="ndvi_amp <= 20.0\ngini = 0.5\nsamples = 2\nvalue = [1, 0, 1, 0, 0, 0, 0, 0, 0, 0, 0]\nclass = y[0]", fillcolor="#ffffff"] ;
382 -> 384 ;
385 [label="gini = 0.0\nsamples = 1\nvalue = [1, 0, 0, 0, 0, 0, 0, 0, 0, 0, 0]\nclass = y[0]", fillcolor="#e58139"] ;
384 -> 385 ;
386 [label="gini = 0.0\nsamples = 1\nvalue = [0, 0, 1, 0, 0, 0, 0, 0, 0, 0, 0]\nclass = y[2]", fillcolor="#8fe539"] ;
384 -> 386 ;
387 [label="VH_mean <= -1287.5\ngini = 0.5\nsamples = 2\nvalue = [1, 0, 0, 0, 0, 0, 1, 0, 0, 0, 0]\nclass = y[0]", fillcolor="#ffffff"] ;
381 -> 387 ;
388 [label="gini = 0.0\nsamples = 1\nvalue = [0, 0, 0, 0, 0, 0, 1, 0, 0, 0, 0]\nclass = y[6]", fillcolor="#396fe5"] ;
387 -> 388 ;
389 [label="gini = 0.0\nsamples = 1\nvalue = [1, 0, 0, 0, 0, 0, 0, 0, 0, 0, 0]\nclass = y[0]", fillcolor="#e58139"] ;
387 -> 389 ;
390 [label="VV_mean <= -732.5\ngini = 0.49\nsamples = 6\nvalue = [3, 0, 4, 0, 0, 0, 0, 0, 0, 0, 0]\nclass = y[2]", fillcolor="#e3f8ce"] ;
380 -> 390 ;
391 [label="ndvi_mean <= 9064.0\ngini = 0.48\nsamples = 4\nvalue = [3, 0, 2, 0, 0, 0, 0, 0, 0, 0, 0]\nclass = y[0]", fillcolor="#f6d5bd"] ;
390 -> 391 ;
392 [label="gini = 0.0\nsamples = 2\nvalue = [0, 0, 2, 0, 0, 0, 0, 0, 0, 0, 0]\nclass = y[2]", fillcolor="#8fe539"] ;
391 -> 392 ;
393 [label="gini = 0.0\nsamples = 2\nvalue = [3, 0, 0, 0, 0, 0, 0, 0, 0, 0, 0]\nclass = y[0]", fillcolor="#e58139"] ;
391 -> 393 ;
394 [label="gini = 0.0\nsamples = 2\nvalue = [0, 0, 2, 0, 0, 0, 0, 0, 0, 0, 0]\nclass = y[2]", fillcolor="#8fe539"] ;
390 -> 394 ;
395 [label="gini = 0.0\nsamples = 1\nvalue = [0, 0, 0, 0, 2, 0, 0, 0, 0, 0, 0]\nclass = y[4]", fillcolor="#39e59d"] ;
379 -> 395 ;
396 [label="ndvi_amp <= 274.0\ngini = 0.656\nsamples = 6\nvalue = [1, 0, 1, 0, 2, 4, 0, 0, 0, 0, 0]\nclass = y[5]", fillcolor="#bdeff6"] ;
378 -> 396 ;
397 [label="rem <= 28.0\ngini = 0.32\nsamples = 4\nvalue = [0, 0, 1, 0, 0, 4, 0, 0, 0, 0, 0]\nclass = y[5]", fillcolor="#6adaec"] ;
396 -> 397 ;
398 [label="gini = 0.0\nsamples = 3\nvalue = [0, 0, 0, 0, 0, 4, 0, 0, 0, 0, 0]\nclass = y[5]", fillcolor="#39cee5"] ;
397 -> 398 ;
399 [label="gini = 0.0\nsamples = 1\nvalue = [0, 0, 1, 0, 0, 0, 0, 0, 0, 0, 0]\nclass = y[2]", fillcolor="#8fe539"] ;
397 -> 399 ;
400 [label="B12_mean <= 1237.0\ngini = 0.444\nsamples = 2\nvalue = [1, 0, 0, 0, 2, 0, 0, 0, 0, 0, 0]\nclass = y[4]", fillcolor="#9cf2ce"] ;
396 -> 400 ;
401 [label="gini = 0.0\nsamples = 1\nvalue = [1, 0, 0, 0, 0, 0, 0, 0, 0, 0, 0]\nclass = y[0]", fillcolor="#e58139"] ;
400 -> 401 ;
402 [label="gini = 0.0\nsamples = 1\nvalue = [0, 0, 0, 0, 2, 0, 0, 0, 0, 0, 0]\nclass = y[4]", fillcolor="#39e59d"] ;
400 -> 402 ;
403 [label="elevation <= 125.5\ngini = 0.714\nsamples = 121\nvalue = [73, 3, 58, 0, 14, 4, 31, 0, 0, 3, 0]\nclass = y[0]", fillcolor="#fcf0e8"] ;
289 -> 403 ;
404 [label="VH_mean <= -1443.5\ngini = 0.697\nsamples = 67\nvalue = [28, 3, 47, 0, 10, 0, 13, 0, 0, 3, 0]\nclass = y[2]", fillcolor="#e3f8ce"] ;
403 -> 404 ;
405 [label="B8_slope <= 70.5\ngini = 0.711\nsamples = 22\nvalue = [15, 0, 8, 0, 4, 0, 5, 0, 0, 2, 0]\nclass = y[0]", fillcolor="#f8ddca"] ;
404 -> 405 ;
406 [label="ndvi_amp <= 37.5\ngini = 0.693\nsamples = 20\nvalue = [15, 0, 5, 0, 4, 0, 5, 0, 0, 2, 0]\nclass = y[0]", fillcolor="#f5cfb3"] ;
405 -> 406 ;
407 [label="gini = 0.0\nsamples = 5\nvalue = [7, 0, 0, 0, 0, 0, 0, 0, 0, 0, 0]\nclass = y[0]", fillcolor="#e58139"] ;
406 -> 407 ;
408 [label="B12_mean <= 1425.0\ngini = 0.767\nsamples = 15\nvalue = [8, 0, 5, 0, 4, 0, 5, 0, 0, 2, 0]\nclass = y[0]", fillcolor="#fbebe0"] ;
406 -> 408 ;
409 [label="B4_mean <= 637.5\ngini = 0.568\nsamples = 9\nvalue = [8, 0, 1, 0, 2, 0, 0, 0, 0, 2, 0]\nclass = y[0]", fillcolor="#f1ba93"] ;
408 -> 409 ;
410 [label="ndvi_amp <= 85.0\ngini = 0.64\nsamples = 4\nvalue = [1, 0, 0, 0, 2, 0, 0, 0, 0, 2, 0]\nclass = y[4]", fillcolor="#ffffff"] ;
409 -> 410 ;
411 [label="gini = 0.0\nsamples = 1\nvalue = [0, 0, 0, 0, 0, 0, 0, 0, 0, 2, 0]\nclass = y[9]", fillcolor="#e539ae"] ;
410 -> 411 ;
412 [label="VH_mean <= -1458.5\ngini = 0.444\nsamples = 3\nvalue = [1, 0, 0, 0, 2, 0, 0, 0, 0, 0, 0]\nclass = y[4]", fillcolor="#9cf2ce"] ;
410 -> 412 ;
413 [label="gini = 0.0\nsamples = 1\nvalue = [1, 0, 0, 0, 0, 0, 0, 0, 0, 0, 0]\nclass = y[0]", fillcolor="#e58139"] ;
412 -> 413 ;
414 [label="gini = 0.0\nsamples = 2\nvalue = [0, 0, 0, 0, 2, 0, 0, 0, 0, 0, 0]\nclass = y[4]", fillcolor="#39e59d"] ;
412 -> 414 ;
415 [label="rem <= 19.5\ngini = 0.219\nsamples = 5\nvalue = [7, 0, 1, 0, 0, 0, 0, 0, 0, 0, 0]\nclass = y[0]", fillcolor="#e99355"] ;
409 -> 415 ;
416 [label="gini = 0.0\nsamples = 3\nvalue = [6, 0, 0, 0, 0, 0, 0, 0, 0, 0, 0]\nclass = y[0]", fillcolor="#e58139"] ;
415 -> 416 ;
417 [label="rem <= 30.0\ngini = 0.5\nsamples = 2\nvalue = [1, 0, 1, 0, 0, 0, 0, 0, 0, 0, 0]\nclass = y[0]", fillcolor="#ffffff"] ;
415 -> 417 ;
418 [label="gini = 0.0\nsamples = 1\nvalue = [0, 0, 1, 0, 0, 0, 0, 0, 0, 0, 0]\nclass = y[2]", fillcolor="#8fe539"] ;
417 -> 418 ;
419 [label="gini = 0.0\nsamples = 1\nvalue = [1, 0, 0, 0, 0, 0, 0, 0, 0, 0, 0]\nclass = y[0]", fillcolor="#e58139"] ;
417 -> 419 ;
420 [label="ndvi_amp <= 174.5\ngini = 0.628\nsamples = 6\nvalue = [0, 0, 4, 0, 2, 0, 5, 0, 0, 0, 0]\nclass = y[6]", fillcolor="#e3eafb"] ;
408 -> 420 ;
421 [label="elevation <= 105.0\ngini = 0.444\nsamples = 4\nvalue = [0, 0, 4, 0, 2, 0, 0, 0, 0, 0, 0]\nclass = y[2]", fillcolor="#c7f29c"] ;
420 -> 421 ;
422 [label="gini = 0.0\nsamples = 1\nvalue = [0, 0, 0, 0, 2, 0, 0, 0, 0, 0, 0]\nclass = y[4]", fillcolor="#39e59d"] ;
421 -> 422 ;
423 [label="gini = 0.0\nsamples = 3\nvalue = [0, 0, 4, 0, 0, 0, 0, 0, 0, 0, 0]\nclass = y[2]", fillcolor="#8fe539"] ;
421 -> 423 ;
424 [label="gini = 0.0\nsamples = 2\nvalue = [0, 0, 0, 0, 0, 0, 5, 0, 0, 0, 0]\nclass = y[6]", fillcolor="#396fe5"] ;
420 -> 424 ;
425 [label="gini = 0.0\nsamples = 2\nvalue = [0, 0, 3, 0, 0, 0, 0, 0, 0, 0, 0]\nclass = y[2]", fillcolor="#8fe539"] ;
405 -> 425 ;
426 [label="elevation <= 80.5\ngini = 0.633\nsamples = 45\nvalue = [13, 3, 39, 0, 6, 0, 8, 0, 0, 1, 0]\nclass = y[2]", fillcolor="#ccf3a5"] ;
404 -> 426 ;
427 [label="ndvi_amp <= 93.0\ngini = 0.449\nsamples = 5\nvalue = [0, 0, 1, 0, 5, 0, 0, 0, 0, 1, 0]\nclass = y[4]", fillcolor="#7beebe"] ;
426 -> 427 ;
428 [label="gini = 0.0\nsamples = 2\nvalue = [0, 0, 0, 0, 4, 0, 0, 0, 0, 0, 0]\nclass = y[4]", fillcolor="#39e59d"] ;
427 -> 428 ;
429 [label="B8_slope <= -70.0\ngini = 0.667\nsamples = 3\nvalue = [0, 0, 1, 0, 1, 0, 0, 0, 0, 1, 0]\nclass = y[2]", fillcolor="#ffffff"] ;
427 -> 429 ;
430 [label="gini = 0.0\nsamples = 1\nvalue = [0, 0, 1, 0, 0, 0, 0, 0, 0, 0, 0]\nclass = y[2]", fillcolor="#8fe539"] ;
429 -> 430 ;
431 [label="VH_mean <= -1300.5\ngini = 0.5\nsamples = 2\nvalue = [0, 0, 0, 0, 1, 0, 0, 0, 0, 1, 0]\nclass = y[4]", fillcolor="#ffffff"] ;
429 -> 431 ;
432 [label="gini = 0.0\nsamples = 1\nvalue = [0, 0, 0, 0, 0, 0, 0, 0, 0, 1, 0]\nclass = y[9]", fillcolor="#e539ae"] ;
431 -> 432 ;
433 [label="gini = 0.0\nsamples = 1\nvalue = [0, 0, 0, 0, 1, 0, 0, 0, 0, 0, 0]\nclass = y[4]", fillcolor="#39e59d"] ;
431 -> 433 ;
434 [label="twi <= 2.5\ngini = 0.575\nsamples = 40\nvalue = [13, 3, 38, 0, 1, 0, 8, 0, 0, 0, 0]\nclass = y[2]", fillcolor="#c7f29c"] ;
426 -> 434 ;
435 [label="ndvi_amp <= 10.5\ngini = 0.678\nsamples = 21\nvalue = [10, 3, 14, 0, 0, 0, 5, 0, 0, 0, 0]\nclass = y[2]", fillcolor="#ebfadb"] ;
434 -> 435 ;
436 [label="gini = 0.0\nsamples = 4\nvalue = [0, 0, 8, 0, 0, 0, 0, 0, 0, 0, 0]\nclass = y[2]", fillcolor="#8fe539"] ;
435 -> 436 ;
437 [label="VV_mean <= -762.5\ngini = 0.705\nsamples = 17\nvalue = [10, 3, 6, 0, 0, 0, 5, 0, 0, 0, 0]\nclass = y[0]", fillcolor="#f9e3d3"] ;
435 -> 437 ;
438 [label="B8_slope <= 115.0\ngini = 0.531\nsamples = 7\nvalue = [2, 0, 5, 0, 0, 0, 1, 0, 0, 0, 0]\nclass = y[2]", fillcolor="#c7f29c"] ;
437 -> 438 ;
439 [label="gini = 0.0\nsamples = 5\nvalue = [0, 0, 5, 0, 0, 0, 0, 0, 0, 0, 0]\nclass = y[2]", fillcolor="#8fe539"] ;
438 -> 439 ;
440 [label="B12_mean <= 1394.5\ngini = 0.444\nsamples = 2\nvalue = [2, 0, 0, 0, 0, 0, 1, 0, 0, 0, 0]\nclass = y[0]", fillcolor="#f2c09c"] ;
438 -> 440 ;
441 [label="gini = 0.0\nsamples = 1\nvalue = [0, 0, 0, 0, 0, 0, 1, 0, 0, 0, 0]\nclass = y[6]", fillcolor="#396fe5"] ;
440 -> 441 ;
442 [label="gini = 0.0\nsamples = 1\nvalue = [2, 0, 0, 0, 0, 0, 0, 0, 0, 0, 0]\nclass = y[0]", fillcolor="#e58139"] ;
440 -> 442 ;
443 [label="elevation <= 122.5\ngini = 0.648\nsamples = 10\nvalue = [8, 3, 1, 0, 0, 0, 4, 0, 0, 0, 0]\nclass = y[0]", fillcolor="#f6d5bd"] ;
437 -> 443 ;
444 [label="ndvi_amp <= 200.0\ngini = 0.583\nsamples = 7\nvalue = [7, 3, 1, 0, 0, 0, 1, 0, 0, 0, 0]\nclass = y[0]", fillcolor="#f3c7a7"] ;
443 -> 444 ;
445 [label="VH_mean <= -1315.0\ngini = 0.219\nsamples = 5\nvalue = [7, 0, 1, 0, 0, 0, 0, 0, 0, 0, 0]\nclass = y[0]", fillcolor="#e99355"] ;
444 -> 445 ;
446 [label="gini = 0.0\nsamples = 4\nvalue = [7, 0, 0, 0, 0, 0, 0, 0, 0, 0, 0]\nclass = y[0]", fillcolor="#e58139"] ;
445 -> 446 ;
447 [label="gini = 0.0\nsamples = 1\nvalue = [0, 0, 1, 0, 0, 0, 0, 0, 0, 0, 0]\nclass = y[2]", fillcolor="#8fe539"] ;
445 -> 447 ;
448 [label="ndvi_amp <= 298.0\ngini = 0.375\nsamples = 2\nvalue = [0, 3, 0, 0, 0, 0, 1, 0, 0, 0, 0]\nclass = y[1]", fillcolor="#eee87b"] ;
444 -> 448 ;
449 [label="gini = 0.0\nsamples = 1\nvalue = [0, 3, 0, 0, 0, 0, 0, 0, 0, 0, 0]\nclass = y[1]", fillcolor="#e5dc39"] ;
448 -> 449 ;
450 [label="gini = 0.0\nsamples = 1\nvalue = [0, 0, 0, 0, 0, 0, 1, 0, 0, 0, 0]\nclass = y[6]", fillcolor="#396fe5"] ;
448 -> 450 ;
451 [label="ndvi_mean <= 9100.5\ngini = 0.375\nsamples = 3\nvalue = [1, 0, 0, 0, 0, 0, 3, 0, 0, 0, 0]\nclass = y[6]", fillcolor="#7b9fee"] ;
443 -> 451 ;
452 [label="gini = 0.0\nsamples = 2\nvalue = [0, 0, 0, 0, 0, 0, 3, 0, 0, 0, 0]\nclass = y[6]", fillcolor="#396fe5"] ;
451 -> 452 ;
453 [label="gini = 0.0\nsamples = 1\nvalue = [1, 0, 0, 0, 0, 0, 0, 0, 0, 0, 0]\nclass = y[0]", fillcolor="#e58139"] ;
451 -> 453 ;
454 [label="VV_mean <= -661.0\ngini = 0.381\nsamples = 19\nvalue = [3, 0, 24, 0, 1, 0, 3, 0, 0, 0, 0]\nclass = y[2]", fillcolor="#abec6a"] ;
434 -> 454 ;
455 [label="B4_mean <= 630.0\ngini = 0.302\nsamples = 18\nvalue = [3, 0, 24, 0, 1, 0, 1, 0, 0, 0, 0]\nclass = y[2]", fillcolor="#a5ea5f"] ;
454 -> 455 ;
456 [label="ndvi_amp <= 26.5\ngini = 0.5\nsamples = 2\nvalue = [0, 0, 0, 0, 1, 0, 1, 0, 0, 0, 0]\nclass = y[4]", fillcolor="#ffffff"] ;
455 -> 456 ;
457 [label="gini = 0.0\nsamples = 1\nvalue = [0, 0, 0, 0, 0, 0, 1, 0, 0, 0, 0]\nclass = y[6]", fillcolor="#396fe5"] ;
456 -> 457 ;
458 [label="gini = 0.0\nsamples = 1\nvalue = [0, 0, 0, 0, 1, 0, 0, 0, 0, 0, 0]\nclass = y[4]", fillcolor="#39e59d"] ;
456 -> 458 ;
459 [label="B12_mean <= 1463.0\ngini = 0.198\nsamples = 16\nvalue = [3, 0, 24, 0, 0, 0, 0, 0, 0, 0, 0]\nclass = y[2]", fillcolor="#9de852"] ;
455 -> 459 ;
460 [label="B4_mean <= 656.5\ngini = 0.077\nsamples = 14\nvalue = [1, 0, 24, 0, 0, 0, 0, 0, 0, 0, 0]\nclass = y[2]", fillcolor="#94e641"] ;
459 -> 460 ;
461 [label="VV_mean <= -754.0\ngini = 0.219\nsamples = 5\nvalue = [1, 0, 7, 0, 0, 0, 0, 0, 0, 0, 0]\nclass = y[2]", fillcolor="#9fe955"] ;
460 -> 461 ;
462 [label="gini = 0.0\nsamples = 3\nvalue = [0, 0, 6, 0, 0, 0, 0, 0, 0, 0, 0]\nclass = y[2]", fillcolor="#8fe539"] ;
461 -> 462 ;
463 [label="B8_slope <= -22.5\ngini = 0.5\nsamples = 2\nvalue = [1, 0, 1, 0, 0, 0, 0, 0, 0, 0, 0]\nclass = y[0]", fillcolor="#ffffff"] ;
461 -> 463 ;
464 [label="gini = 0.0\nsamples = 1\nvalue = [0, 0, 1, 0, 0, 0, 0, 0, 0, 0, 0]\nclass = y[2]", fillcolor="#8fe539"] ;
463 -> 464 ;
465 [label="gini = 0.0\nsamples = 1\nvalue = [1, 0, 0, 0, 0, 0, 0, 0, 0, 0, 0]\nclass = y[0]", fillcolor="#e58139"] ;
463 -> 465 ;
466 [label="gini = 0.0\nsamples = 9\nvalue = [0, 0, 17, 0, 0, 0, 0, 0, 0, 0, 0]\nclass = y[2]", fillcolor="#8fe539"] ;
460 -> 466 ;
467 [label="gini = 0.0\nsamples = 2\nvalue = [2, 0, 0, 0, 0, 0, 0, 0, 0, 0, 0]\nclass = y[0]", fillcolor="#e58139"] ;
459 -> 467 ;
468 [label="gini = 0.0\nsamples = 1\nvalue = [0, 0, 0, 0, 0, 0, 2, 0, 0, 0, 0]\nclass = y[6]", fillcolor="#396fe5"] ;
454 -> 468 ;
469 [label="B4_mean <= 670.5\ngini = 0.628\nsamples = 54\nvalue = [45, 0, 11, 0, 4, 4, 18, 0, 0, 0, 0]\nclass = y[0]", fillcolor="#f4caab"] ;
403 -> 469 ;
470 [label="ndvi_mean <= 9125.0\ngini = 0.708\nsamples = 32\nvalue = [21, 0, 8, 0, 3, 4, 17, 0, 0, 0, 0]\nclass = y[0]", fillcolor="#fcf1e9"] ;
469 -> 470 ;
471 [label="B8_phase <= 5850.0\ngini = 0.714\nsamples = 24\nvalue = [8, 0, 8, 0, 3, 3, 17, 0, 0, 0, 0]\nclass = y[6]", fillcolor="#c6d5f7"] ;
470 -> 471 ;
472 [label="B8_phase <= 2466.5\ngini = 0.698\nsamples = 8\nvalue = [1, 0, 6, 0, 2, 3, 1, 0, 0, 0, 0]\nclass = y[2]", fillcolor="#ddf7c4"] ;
471 -> 472 ;
473 [label="VH_mean <= -1363.5\ngini = 0.278\nsamples = 3\nvalue = [0, 0, 5, 0, 0, 0, 1, 0, 0, 0, 0]\nclass = y[2]", fillcolor="#a5ea61"] ;
472 -> 473 ;
474 [label="gini = 0.0\nsamples = 2\nvalue = [0, 0, 5, 0, 0, 0, 0, 0, 0, 0, 0]\nclass = y[2]", fillcolor="#8fe539"] ;
473 -> 474 ;
475 [label="gini = 0.0\nsamples = 1\nvalue = [0, 0, 0, 0, 0, 0, 1, 0, 0, 0, 0]\nclass = y[6]", fillcolor="#396fe5"] ;
473 -> 475 ;
476 [label="ndvi_amp <= 187.5\ngini = 0.694\nsamples = 5\nvalue = [1, 0, 1, 0, 2, 3, 0, 0, 0, 0, 0]\nclass = y[5]", fillcolor="#d7f5fa"] ;
472 -> 476 ;
477 [label="B8_slope <= -25.5\ngini = 0.625\nsamples = 3\nvalue = [1, 0, 1, 0, 2, 0, 0, 0, 0, 0, 0]\nclass = y[4]", fillcolor="#bdf6de"] ;
476 -> 477 ;
478 [label="VV_mean <= -917.5\ngini = 0.5\nsamples = 2\nvalue = [1, 0, 1, 0, 0, 0, 0, 0, 0, 0, 0]\nclass = y[0]", fillcolor="#ffffff"] ;
477 -> 478 ;
479 [label="gini = 0.0\nsamples = 1\nvalue = [0, 0, 1, 0, 0, 0, 0, 0, 0, 0, 0]\nclass = y[2]", fillcolor="#8fe539"] ;
478 -> 479 ;
480 [label="gini = 0.0\nsamples = 1\nvalue = [1, 0, 0, 0, 0, 0, 0, 0, 0, 0, 0]\nclass = y[0]", fillcolor="#e58139"] ;
478 -> 480 ;
481 [label="gini = 0.0\nsamples = 1\nvalue = [0, 0, 0, 0, 2, 0, 0, 0, 0, 0, 0]\nclass = y[4]", fillcolor="#39e59d"] ;
477 -> 481 ;
482 [label="gini = 0.0\nsamples = 2\nvalue = [0, 0, 0, 0, 0, 3, 0, 0, 0, 0, 0]\nclass = y[5]", fillcolor="#39cee5"] ;
476 -> 482 ;
483 [label="VH_mean <= -1339.0\ngini = 0.541\nsamples = 16\nvalue = [7, 0, 2, 0, 1, 0, 16, 0, 0, 0, 0]\nclass = y[6]", fillcolor="#a1bbf3"] ;
471 -> 483 ;
484 [label="rem <= 51.0\ngini = 0.417\nsamples = 12\nvalue = [5, 0, 1, 0, 0, 0, 16, 0, 0, 0, 0]\nclass = y[6]", fillcolor="#7fa2ee"] ;
483 -> 484 ;
485 [label="B8_slope <= -46.5\ngini = 0.335\nsamples = 11\nvalue = [3, 0, 1, 0, 0, 0, 16, 0, 0, 0, 0]\nclass = y[6]", fillcolor="#6891eb"] ;
484 -> 485 ;
486 [label="gini = 0.0\nsamples = 2\nvalue = [2, 0, 0, 0, 0, 0, 0, 0, 0, 0, 0]\nclass = y[0]", fillcolor="#e58139"] ;
485 -> 486 ;
487 [label="VH_mean <= -1381.5\ngini = 0.204\nsamples = 9\nvalue = [1, 0, 1, 0, 0, 0, 16, 0, 0, 0, 0]\nclass = y[6]", fillcolor="#5080e8"] ;
485 -> 487 ;
488 [label="elevation <= 127.0\ngini = 0.117\nsamples = 7\nvalue = [1, 0, 0, 0, 0, 0, 15, 0, 0, 0, 0]\nclass = y[6]", fillcolor="#4679e7"] ;
487 -> 488 ;
489 [label="gini = 0.0\nsamples = 1\nvalue = [1, 0, 0, 0, 0, 0, 0, 0, 0, 0, 0]\nclass = y[0]", fillcolor="#e58139"] ;
488 -> 489 ;
490 [label="gini = 0.0\nsamples = 6\nvalue = [0, 0, 0, 0, 0, 0, 15, 0, 0, 0, 0]\nclass = y[6]", fillcolor="#396fe5"] ;
488 -> 490 ;
491 [label="B4_mean <= 607.5\ngini = 0.5\nsamples = 2\nvalue = [0, 0, 1, 0, 0, 0, 1, 0, 0, 0, 0]\nclass = y[2]", fillcolor="#ffffff"] ;
487 -> 491 ;
492 [label="gini = 0.0\nsamples = 1\nvalue = [0, 0, 0, 0, 0, 0, 1, 0, 0, 0, 0]\nclass = y[6]", fillcolor="#396fe5"] ;
491 -> 492 ;
493 [label="gini = 0.0\nsamples = 1\nvalue = [0, 0, 1, 0, 0, 0, 0, 0, 0, 0, 0]\nclass = y[2]", fillcolor="#8fe539"] ;
491 -> 493 ;
494 [label="gini = 0.0\nsamples = 1\nvalue = [2, 0, 0, 0, 0, 0, 0, 0, 0, 0, 0]\nclass = y[0]", fillcolor="#e58139"] ;
484 -> 494 ;
495 [label="B8_mean <= 5606.5\ngini = 0.625\nsamples = 4\nvalue = [2, 0, 1, 0, 1, 0, 0, 0, 0, 0, 0]\nclass = y[0]", fillcolor="#f6d5bd"] ;
483 -> 495 ;
496 [label="gini = 0.0\nsamples = 2\nvalue = [2, 0, 0, 0, 0, 0, 0, 0, 0, 0, 0]\nclass = y[0]", fillcolor="#e58139"] ;
495 -> 496 ;
497 [label="twi <= 2.5\ngini = 0.5\nsamples = 2\nvalue = [0, 0, 1, 0, 1, 0, 0, 0, 0, 0, 0]\nclass = y[2]", fillcolor="#ffffff"] ;
495 -> 497 ;
498 [label="gini = 0.0\nsamples = 1\nvalue = [0, 0, 1, 0, 0, 0, 0, 0, 0, 0, 0]\nclass = y[2]", fillcolor="#8fe539"] ;
497 -> 498 ;
499 [label="gini = 0.0\nsamples = 1\nvalue = [0, 0, 0, 0, 1, 0, 0, 0, 0, 0, 0]\nclass = y[4]", fillcolor="#39e59d"] ;
497 -> 499 ;
500 [label="VV_mean <= -894.5\ngini = 0.133\nsamples = 8\nvalue = [13, 0, 0, 0, 0, 1, 0, 0, 0, 0, 0]\nclass = y[0]", fillcolor="#e78b48"] ;
470 -> 500 ;
501 [label="B12_mean <= 1369.0\ngini = 0.375\nsamples = 2\nvalue = [3, 0, 0, 0, 0, 1, 0, 0, 0, 0, 0]\nclass = y[0]", fillcolor="#eeab7b"] ;
500 -> 501 ;
502 [label="gini = 0.0\nsamples = 1\nvalue = [3, 0, 0, 0, 0, 0, 0, 0, 0, 0, 0]\nclass = y[0]", fillcolor="#e58139"] ;
501 -> 502 ;
503 [label="gini = 0.0\nsamples = 1\nvalue = [0, 0, 0, 0, 0, 1, 0, 0, 0, 0, 0]\nclass = y[5]", fillcolor="#39cee5"] ;
501 -> 503 ;
504 [label="gini = 0.0\nsamples = 6\nvalue = [10, 0, 0, 0, 0, 0, 0, 0, 0, 0, 0]\nclass = y[0]", fillcolor="#e58139"] ;
500 -> 504 ;
505 [label="B8_slope <= 148.0\ngini = 0.302\nsamples = 22\nvalue = [24, 0, 3, 0, 1, 0, 1, 0, 0, 0, 0]\nclass = y[0]", fillcolor="#ea995f"] ;
469 -> 505 ;
506 [label="VH_mean <= -1328.0\ngini = 0.206\nsamples = 21\nvalue = [24, 0, 1, 0, 1, 0, 1, 0, 0, 0, 0]\nclass = y[0]", fillcolor="#e89050"] ;
505 -> 506 ;
507 [label="B12_mean <= 1329.5\ngini = 0.15\nsamples = 19\nvalue = [23, 0, 1, 0, 0, 0, 1, 0, 0, 0, 0]\nclass = y[0]", fillcolor="#e78c49"] ;
506 -> 507 ;
508 [label="gini = 0.0\nsamples = 1\nvalue = [0, 0, 1, 0, 0, 0, 0, 0, 0, 0, 0]\nclass = y[2]", fillcolor="#8fe539"] ;
507 -> 508 ;
509 [label="rem <= 6.0\ngini = 0.08\nsamples = 18\nvalue = [23, 0, 0, 0, 0, 0, 1, 0, 0, 0, 0]\nclass = y[0]", fillcolor="#e68642"] ;
507 -> 509 ;
510 [label="gini = 0.0\nsamples = 1\nvalue = [0, 0, 0, 0, 0, 0, 1, 0, 0, 0, 0]\nclass = y[6]", fillcolor="#396fe5"] ;
509 -> 510 ;
511 [label="gini = 0.0\nsamples = 17\nvalue = [23, 0, 0, 0, 0, 0, 0, 0, 0, 0, 0]\nclass = y[0]", fillcolor="#e58139"] ;
509 -> 511 ;
512 [label="elevation <= 138.0\ngini = 0.5\nsamples = 2\nvalue = [1, 0, 0, 0, 1, 0, 0, 0, 0, 0, 0]\nclass = y[0]", fillcolor="#ffffff"] ;
506 -> 512 ;
513 [label="gini = 0.0\nsamples = 1\nvalue = [1, 0, 0, 0, 0, 0, 0, 0, 0, 0, 0]\nclass = y[0]", fillcolor="#e58139"] ;
512 -> 513 ;
514 [label="gini = 0.0\nsamples = 1\nvalue = [0, 0, 0, 0, 1, 0, 0, 0, 0, 0, 0]\nclass = y[4]", fillcolor="#39e59d"] ;
512 -> 514 ;
515 [label="gini = 0.0\nsamples = 1\nvalue = [0, 0, 2, 0, 0, 0, 0, 0, 0, 0, 0]\nclass = y[2]", fillcolor="#8fe539"] ;
505 -> 515 ;
516 [label="elevation <= 213.5\ngini = 0.442\nsamples = 462\nvalue = [552, 2, 108, 0, 23, 24, 37, 0, 5, 5, 0]\nclass = y[0]", fillcolor="#eda977"] ;
288 -> 516 ;
517 [label="rem <= 9.5\ngini = 0.538\nsamples = 314\nvalue = [334, 2, 98, 0, 21, 22, 30, 0, 5, 4, 0]\nclass = y[0]", fillcolor="#f0b88f"] ;
516 -> 517 ;
518 [label="elevation <= 177.5\ngini = 0.676\nsamples = 85\nvalue = [42, 2, 71, 0, 10, 2, 16, 0, 5, 1, 0]\nclass = y[2]", fillcolor="#e1f8c9"] ;
517 -> 518 ;
519 [label="B8_slope <= -96.5\ngini = 0.597\nsamples = 41\nvalue = [9.0, 0.0, 43.0, 0.0, 5.0, 2.0, 7.0, 0.0, 5.0, 0.0\n0.0]\nclass = y[2]", fillcolor="#c2f192"] ;
518 -> 519 ;
520 [label="B8_mean <= 5291.0\ngini = 0.568\nsamples = 5\nvalue = [0, 0, 3, 0, 1, 0, 0, 0, 5, 0, 0]\nclass = y[8]", fillcolor="#e9bdf6"] ;
519 -> 520 ;
521 [label="gini = 0.0\nsamples = 1\nvalue = [0, 0, 0, 0, 0, 0, 0, 0, 5, 0, 0]\nclass = y[8]", fillcolor="#bd39e5"] ;
520 -> 521 ;
522 [label="B4_mean <= 692.0\ngini = 0.375\nsamples = 4\nvalue = [0, 0, 3, 0, 1, 0, 0, 0, 0, 0, 0]\nclass = y[2]", fillcolor="#b4ee7b"] ;
520 -> 522 ;
523 [label="gini = 0.0\nsamples = 3\nvalue = [0, 0, 3, 0, 0, 0, 0, 0, 0, 0, 0]\nclass = y[2]", fillcolor="#8fe539"] ;
522 -> 523 ;
524 [label="gini = 0.0\nsamples = 1\nvalue = [0, 0, 0, 0, 1, 0, 0, 0, 0, 0, 0]\nclass = y[4]", fillcolor="#39e59d"] ;
522 -> 524 ;
525 [label="rem <= 5.5\ngini = 0.545\nsamples = 36\nvalue = [9, 0, 40, 0, 4, 2, 7, 0, 0, 0, 0]\nclass = y[2]", fillcolor="#bdf08b"] ;
519 -> 525 ;
526 [label="elevation <= 170.5\ngini = 0.332\nsamples = 24\nvalue = [4, 0, 34, 0, 1, 2, 1, 0, 0, 0, 0]\nclass = y[2]", fillcolor="#a7ea63"] ;
525 -> 526 ;
527 [label="B4_mean <= 635.5\ngini = 0.174\nsamples = 19\nvalue = [0, 0, 29, 0, 0, 2, 1, 0, 0, 0, 0]\nclass = y[2]", fillcolor="#9ae84d"] ;
526 -> 527 ;
528 [label="B4_mean <= 618.5\ngini = 0.46\nsamples = 6\nvalue = [0, 0, 7, 0, 0, 2, 1, 0, 0, 0, 0]\nclass = y[2]", fillcolor="#b9ef83"] ;
527 -> 528 ;
529 [label="gini = 0.0\nsamples = 4\nvalue = [0, 0, 7, 0, 0, 0, 0, 0, 0, 0, 0]\nclass = y[2]", fillcolor="#8fe539"] ;
528 -> 529 ;
530 [label="VH_mean <= -1468.5\ngini = 0.444\nsamples = 2\nvalue = [0, 0, 0, 0, 0, 2, 1, 0, 0, 0, 0]\nclass = y[5]", fillcolor="#9ce6f2"] ;
528 -> 530 ;
531 [label="gini = 0.0\nsamples = 1\nvalue = [0, 0, 0, 0, 0, 2, 0, 0, 0, 0, 0]\nclass = y[5]", fillcolor="#39cee5"] ;
530 -> 531 ;
532 [label="gini = 0.0\nsamples = 1\nvalue = [0, 0, 0, 0, 0, 0, 1, 0, 0, 0, 0]\nclass = y[6]", fillcolor="#396fe5"] ;
530 -> 532 ;
533 [label="gini = 0.0\nsamples = 13\nvalue = [0, 0, 22, 0, 0, 0, 0, 0, 0, 0, 0]\nclass = y[2]", fillcolor="#8fe539"] ;
527 -> 533 ;
534 [label="B8_phase <= 9000.0\ngini = 0.58\nsamples = 5\nvalue = [4, 0, 5, 0, 1, 0, 0, 0, 0, 0, 0]\nclass = y[2]", fillcolor="#ecfbde"] ;
526 -> 534 ;
535 [label="rem <= 3.5\ngini = 0.444\nsamples = 2\nvalue = [2, 0, 0, 0, 1, 0, 0, 0, 0, 0, 0]\nclass = y[0]", fillcolor="#f2c09c"] ;
534 -> 535 ;
536 [label="gini = 0.0\nsamples = 1\nvalue = [0, 0, 0, 0, 1, 0, 0, 0, 0, 0, 0]\nclass = y[4]", fillcolor="#39e59d"] ;
535 -> 536 ;
537 [label="gini = 0.0\nsamples = 1\nvalue = [2, 0, 0, 0, 0, 0, 0, 0, 0, 0, 0]\nclass = y[0]", fillcolor="#e58139"] ;
535 -> 537 ;
538 [label="B8_slope <= 16.0\ngini = 0.408\nsamples = 3\nvalue = [2, 0, 5, 0, 0, 0, 0, 0, 0, 0, 0]\nclass = y[2]", fillcolor="#bcef88"] ;
534 -> 538 ;
539 [label="gini = 0.0\nsamples = 1\nvalue = [2, 0, 0, 0, 0, 0, 0, 0, 0, 0, 0]\nclass = y[0]", fillcolor="#e58139"] ;
538 -> 539 ;
540 [label="gini = 0.0\nsamples = 2\nvalue = [0, 0, 5, 0, 0, 0, 0, 0, 0, 0, 0]\nclass = y[2]", fillcolor="#8fe539"] ;
538 -> 540 ;
541 [label="ndvi_amp <= 217.0\ngini = 0.735\nsamples = 12\nvalue = [5, 0, 6, 0, 3, 0, 6, 0, 0, 0, 0]\nclass = y[2]", fillcolor="#ffffff"] ;
525 -> 541 ;
542 [label="ndvi_mean <= 8953.0\ngini = 0.711\nsamples = 9\nvalue = [5, 0, 2, 0, 3, 0, 6, 0, 0, 0, 0]\nclass = y[6]", fillcolor="#edf2fd"] ;
541 -> 542 ;
543 [label="ndvi_amp <= 59.0\ngini = 0.5\nsamples = 2\nvalue = [0, 0, 2, 0, 2, 0, 0, 0, 0, 0, 0]\nclass = y[2]", fillcolor="#ffffff"] ;
542 -> 543 ;
544 [label="gini = 0.0\nsamples = 1\nvalue = [0, 0, 2, 0, 0, 0, 0, 0, 0, 0, 0]\nclass = y[2]", fillcolor="#8fe539"] ;
543 -> 544 ;
545 [label="gini = 0.0\nsamples = 1\nvalue = [0, 0, 0, 0, 2, 0, 0, 0, 0, 0, 0]\nclass = y[4]", fillcolor="#39e59d"] ;
543 -> 545 ;
546 [label="B8_mean <= 6572.0\ngini = 0.569\nsamples = 7\nvalue = [5, 0, 0, 0, 1, 0, 6, 0, 0, 0, 0]\nclass = y[6]", fillcolor="#e3eafb"] ;
542 -> 546 ;
547 [label="B8_slope <= 0.5\ngini = 0.406\nsamples = 6\nvalue = [1, 0, 0, 0, 1, 0, 6, 0, 0, 0, 0]\nclass = y[6]", fillcolor="#7298ec"] ;
546 -> 547 ;
548 [label="twi <= 2.5\ngini = 0.667\nsamples = 3\nvalue = [1, 0, 0, 0, 1, 0, 1, 0, 0, 0, 0]\nclass = y[0]", fillcolor="#ffffff"] ;
547 -> 548 ;
549 [label="rem <= 6.5\ngini = 0.5\nsamples = 2\nvalue = [1, 0, 0, 0, 1, 0, 0, 0, 0, 0, 0]\nclass = y[0]", fillcolor="#ffffff"] ;
548 -> 549 ;
550 [label="gini = 0.0\nsamples = 1\nvalue = [0, 0, 0, 0, 1, 0, 0, 0, 0, 0, 0]\nclass = y[4]", fillcolor="#39e59d"] ;
549 -> 550 ;
551 [label="gini = 0.0\nsamples = 1\nvalue = [1, 0, 0, 0, 0, 0, 0, 0, 0, 0, 0]\nclass = y[0]", fillcolor="#e58139"] ;
549 -> 551 ;
552 [label="gini = 0.0\nsamples = 1\nvalue = [0, 0, 0, 0, 0, 0, 1, 0, 0, 0, 0]\nclass = y[6]", fillcolor="#396fe5"] ;
548 -> 552 ;
553 [label="gini = 0.0\nsamples = 3\nvalue = [0, 0, 0, 0, 0, 0, 5, 0, 0, 0, 0]\nclass = y[6]", fillcolor="#396fe5"] ;
547 -> 553 ;
554 [label="gini = 0.0\nsamples = 1\nvalue = [4, 0, 0, 0, 0, 0, 0, 0, 0, 0, 0]\nclass = y[0]", fillcolor="#e58139"] ;
546 -> 554 ;
555 [label="gini = 0.0\nsamples = 3\nvalue = [0, 0, 4, 0, 0, 0, 0, 0, 0, 0, 0]\nclass = y[2]", fillcolor="#8fe539"] ;
541 -> 555 ;
556 [label="ndvi_amp <= 36.5\ngini = 0.674\nsamples = 44\nvalue = [33, 2, 28, 0, 5, 0, 9, 0, 0, 1, 0]\nclass = y[0]", fillcolor="#fcf2eb"] ;
518 -> 556 ;
557 [label="rem <= -0.5\ngini = 0.188\nsamples = 11\nvalue = [17, 2, 0, 0, 0, 0, 0, 0, 0, 0, 0]\nclass = y[0]", fillcolor="#e89050"] ;
556 -> 557 ;
558 [label="gini = 0.0\nsamples = 1\nvalue = [0, 2, 0, 0, 0, 0, 0, 0, 0, 0, 0]\nclass = y[1]", fillcolor="#e5dc39"] ;
557 -> 558 ;
559 [label="gini = 0.0\nsamples = 10\nvalue = [17, 0, 0, 0, 0, 0, 0, 0, 0, 0, 0]\nclass = y[0]", fillcolor="#e58139"] ;
557 -> 559 ;
560 [label="VV_mean <= -760.5\ngini = 0.67\nsamples = 33\nvalue = [16, 0, 28, 0, 5, 0, 9, 0, 0, 1, 0]\nclass = y[2]", fillcolor="#e0f8c8"] ;
556 -> 560 ;
561 [label="VV_mean <= -897.0\ngini = 0.619\nsamples = 17\nvalue = [2, 0, 19, 0, 5, 0, 7, 0, 0, 1, 0]\nclass = y[2]", fillcolor="#cdf3a7"] ;
560 -> 561 ;
562 [label="ndvi_mean <= 8910.0\ngini = 0.494\nsamples = 2\nvalue = [0, 0, 4, 0, 5, 0, 0, 0, 0, 0, 0]\nclass = y[4]", fillcolor="#d7faeb"] ;
561 -> 562 ;
563 [label="gini = 0.0\nsamples = 1\nvalue = [0, 0, 4, 0, 0, 0, 0, 0, 0, 0, 0]\nclass = y[2]", fillcolor="#8fe539"] ;
562 -> 563 ;
564 [label="gini = 0.0\nsamples = 1\nvalue = [0, 0, 0, 0, 5, 0, 0, 0, 0, 0, 0]\nclass = y[4]", fillcolor="#39e59d"] ;
562 -> 564 ;
565 [label="elevation <= 186.0\ngini = 0.554\nsamples = 15\nvalue = [2.0, 0.0, 15.0, 0.0, 0.0, 0.0, 7.0, 0.0, 0.0, 1.0\n0.0]\nclass = y[2]", fillcolor="#cdf3a7"] ;
561 -> 565 ;
566 [label="gini = 0.0\nsamples = 2\nvalue = [0, 0, 0, 0, 0, 0, 3, 0, 0, 0, 0]\nclass = y[6]", fillcolor="#396fe5"] ;
565 -> 566 ;
567 [label="B8_slope <= 138.0\ngini = 0.492\nsamples = 13\nvalue = [2.0, 0.0, 15.0, 0.0, 0.0, 0.0, 4.0, 0.0, 0.0, 1.0\n0.0]\nclass = y[2]", fillcolor="#bbef86"] ;
565 -> 567 ;
568 [label="ndvi_amp <= 44.5\ngini = 0.36\nsamples = 11\nvalue = [1, 0, 15, 0, 0, 0, 2, 0, 0, 1, 0]\nclass = y[2]", fillcolor="#a9eb68"] ;
567 -> 568 ;
569 [label="gini = 0.0\nsamples = 1\nvalue = [0, 0, 0, 0, 0, 0, 2, 0, 0, 0, 0]\nclass = y[6]", fillcolor="#396fe5"] ;
568 -> 569 ;
570 [label="ndvi_amp <= 125.5\ngini = 0.215\nsamples = 10\nvalue = [1, 0, 15, 0, 0, 0, 0, 0, 0, 1, 0]\nclass = y[2]", fillcolor="#9de852"] ;
568 -> 570 ;
571 [label="gini = 0.0\nsamples = 5\nvalue = [0, 0, 10, 0, 0, 0, 0, 0, 0, 0, 0]\nclass = y[2]", fillcolor="#8fe539"] ;
570 -> 571 ;
572 [label="VV_mean <= -863.5\ngini = 0.449\nsamples = 5\nvalue = [1, 0, 5, 0, 0, 0, 0, 0, 0, 1, 0]\nclass = y[2]", fillcolor="#b4ee7b"] ;
570 -> 572 ;
573 [label="VH_mean <= -1524.5\ngini = 0.5\nsamples = 2\nvalue = [1, 0, 0, 0, 0, 0, 0, 0, 0, 1, 0]\nclass = y[0]", fillcolor="#ffffff"] ;
572 -> 573 ;
574 [label="gini = 0.0\nsamples = 1\nvalue = [0, 0, 0, 0, 0, 0, 0, 0, 0, 1, 0]\nclass = y[9]", fillcolor="#e539ae"] ;
573 -> 574 ;
575 [label="gini = 0.0\nsamples = 1\nvalue = [1, 0, 0, 0, 0, 0, 0, 0, 0, 0, 0]\nclass = y[0]", fillcolor="#e58139"] ;
573 -> 575 ;
576 [label="gini = 0.0\nsamples = 3\nvalue = [0, 0, 5, 0, 0, 0, 0, 0, 0, 0, 0]\nclass = y[2]", fillcolor="#8fe539"] ;
572 -> 576 ;
577 [label="B8_phase <= 8288.5\ngini = 0.444\nsamples = 2\nvalue = [1, 0, 0, 0, 0, 0, 2, 0, 0, 0, 0]\nclass = y[6]", fillcolor="#9cb7f2"] ;
567 -> 577 ;
578 [label="gini = 0.0\nsamples = 1\nvalue = [1, 0, 0, 0, 0, 0, 0, 0, 0, 0, 0]\nclass = y[0]", fillcolor="#e58139"] ;
577 -> 578 ;
579 [label="gini = 0.0\nsamples = 1\nvalue = [0, 0, 0, 0, 0, 0, 2, 0, 0, 0, 0]\nclass = y[6]", fillcolor="#396fe5"] ;
577 -> 579 ;
580 [label="VH_mean <= -1223.5\ngini = 0.55\nsamples = 16\nvalue = [14.0, 0.0, 9.0, 0.0, 0.0, 0.0, 2.0, 0.0, 0.0, 0.0\n0.0]\nclass = y[0]", fillcolor="#f7d8c1"] ;
560 -> 580 ;
581 [label="VH_mean <= -1289.5\ngini = 0.585\nsamples = 13\nvalue = [9, 0, 9, 0, 0, 0, 2, 0, 0, 0, 0]\nclass = y[0]", fillcolor="#ffffff"] ;
580 -> 581 ;
582 [label="B12_mean <= 1413.0\ngini = 0.426\nsamples = 8\nvalue = [9, 0, 4, 0, 0, 0, 0, 0, 0, 0, 0]\nclass = y[0]", fillcolor="#f1b991"] ;
581 -> 582 ;
583 [label="ndvi_mean <= 9008.5\ngini = 0.298\nsamples = 6\nvalue = [9, 0, 2, 0, 0, 0, 0, 0, 0, 0, 0]\nclass = y[0]", fillcolor="#eb9d65"] ;
582 -> 583 ;
584 [label="rem <= 3.5\ngini = 0.5\nsamples = 3\nvalue = [2, 0, 2, 0, 0, 0, 0, 0, 0, 0, 0]\nclass = y[0]", fillcolor="#ffffff"] ;
583 -> 584 ;
585 [label="gini = 0.0\nsamples = 1\nvalue = [0, 0, 1, 0, 0, 0, 0, 0, 0, 0, 0]\nclass = y[2]", fillcolor="#8fe539"] ;
584 -> 585 ;
586 [label="B12_mean <= 1339.5\ngini = 0.444\nsamples = 2\nvalue = [2, 0, 1, 0, 0, 0, 0, 0, 0, 0, 0]\nclass = y[0]", fillcolor="#f2c09c"] ;
584 -> 586 ;
587 [label="gini = 0.0\nsamples = 1\nvalue = [0, 0, 1, 0, 0, 0, 0, 0, 0, 0, 0]\nclass = y[2]", fillcolor="#8fe539"] ;
586 -> 587 ;
588 [label="gini = 0.0\nsamples = 1\nvalue = [2, 0, 0, 0, 0, 0, 0, 0, 0, 0, 0]\nclass = y[0]", fillcolor="#e58139"] ;
586 -> 588 ;
589 [label="gini = 0.0\nsamples = 3\nvalue = [7, 0, 0, 0, 0, 0, 0, 0, 0, 0, 0]\nclass = y[0]", fillcolor="#e58139"] ;
583 -> 589 ;
590 [label="gini = 0.0\nsamples = 2\nvalue = [0, 0, 2, 0, 0, 0, 0, 0, 0, 0, 0]\nclass = y[2]", fillcolor="#8fe539"] ;
582 -> 590 ;
591 [label="B8_slope <= 131.0\ngini = 0.408\nsamples = 5\nvalue = [0, 0, 5, 0, 0, 0, 2, 0, 0, 0, 0]\nclass = y[2]", fillcolor="#bcef88"] ;
581 -> 591 ;
592 [label="gini = 0.0\nsamples = 4\nvalue = [0, 0, 5, 0, 0, 0, 0, 0, 0, 0, 0]\nclass = y[2]", fillcolor="#8fe539"] ;
591 -> 592 ;
593 [label="gini = 0.0\nsamples = 1\nvalue = [0, 0, 0, 0, 0, 0, 2, 0, 0, 0, 0]\nclass = y[6]", fillcolor="#396fe5"] ;
591 -> 593 ;
594 [label="gini = 0.0\nsamples = 3\nvalue = [5, 0, 0, 0, 0, 0, 0, 0, 0, 0, 0]\nclass = y[0]", fillcolor="#e58139"] ;
580 -> 594 ;
595 [label="ndvi_mean <= 8993.5\ngini = 0.356\nsamples = 229\nvalue = [292.0, 0.0, 27.0, 0.0, 11.0, 20.0, 14.0, 0.0, 0.0\n3.0, 0.0]\nclass = y[0]", fillcolor="#eb9d65"] ;
517 -> 595 ;
596 [label="ndvi_amp <= 29.5\ngini = 0.564\nsamples = 66\nvalue = [66, 0, 18, 0, 1, 13, 7, 0, 0, 1, 0]\nclass = y[0]", fillcolor="#f1ba93"] ;
595 -> 596 ;
597 [label="B12_mean <= 1387.5\ngini = 0.725\nsamples = 16\nvalue = [7, 0, 12, 0, 0, 9, 5, 0, 0, 0, 0]\nclass = y[2]", fillcolor="#f1fce6"] ;
596 -> 597 ;
598 [label="B8_slope <= 18.5\ngini = 0.642\nsamples = 13\nvalue = [6, 0, 12, 0, 0, 9, 0, 0, 0, 0, 0]\nclass = y[2]", fillcolor="#ecfbde"] ;
597 -> 598 ;
599 [label="VV_mean <= -739.0\ngini = 0.403\nsamples = 6\nvalue = [1, 0, 2, 0, 0, 9, 0, 0, 0, 0, 0]\nclass = y[5]", fillcolor="#74dded"] ;
598 -> 599 ;
600 [label="gini = 0.0\nsamples = 4\nvalue = [0, 0, 0, 0, 0, 9, 0, 0, 0, 0, 0]\nclass = y[5]", fillcolor="#39cee5"] ;
599 -> 600 ;
601 [label="B8_mean <= 5506.5\ngini = 0.444\nsamples = 2\nvalue = [1, 0, 2, 0, 0, 0, 0, 0, 0, 0, 0]\nclass = y[2]", fillcolor="#c7f29c"] ;
599 -> 601 ;
602 [label="gini = 0.0\nsamples = 1\nvalue = [0, 0, 2, 0, 0, 0, 0, 0, 0, 0, 0]\nclass = y[2]", fillcolor="#8fe539"] ;
601 -> 602 ;
603 [label="gini = 0.0\nsamples = 1\nvalue = [1, 0, 0, 0, 0, 0, 0, 0, 0, 0, 0]\nclass = y[0]", fillcolor="#e58139"] ;
601 -> 603 ;
604 [label="B8_mean <= 5240.0\ngini = 0.444\nsamples = 7\nvalue = [5, 0, 10, 0, 0, 0, 0, 0, 0, 0, 0]\nclass = y[2]", fillcolor="#c7f29c"] ;
598 -> 604 ;
605 [label="B4_mean <= 611.5\ngini = 0.278\nsamples = 5\nvalue = [2, 0, 10, 0, 0, 0, 0, 0, 0, 0, 0]\nclass = y[2]", fillcolor="#a5ea61"] ;
604 -> 605 ;
606 [label="gini = 0.0\nsamples = 3\nvalue = [0, 0, 7, 0, 0, 0, 0, 0, 0, 0, 0]\nclass = y[2]", fillcolor="#8fe539"] ;
605 -> 606 ;
607 [label="twi <= 2.5\ngini = 0.48\nsamples = 2\nvalue = [2, 0, 3, 0, 0, 0, 0, 0, 0, 0, 0]\nclass = y[2]", fillcolor="#daf6bd"] ;
605 -> 607 ;
608 [label="gini = 0.0\nsamples = 1\nvalue = [2, 0, 0, 0, 0, 0, 0, 0, 0, 0, 0]\nclass = y[0]", fillcolor="#e58139"] ;
607 -> 608 ;
609 [label="gini = 0.0\nsamples = 1\nvalue = [0, 0, 3, 0, 0, 0, 0, 0, 0, 0, 0]\nclass = y[2]", fillcolor="#8fe539"] ;
607 -> 609 ;
610 [label="gini = 0.0\nsamples = 2\nvalue = [3, 0, 0, 0, 0, 0, 0, 0, 0, 0, 0]\nclass = y[0]", fillcolor="#e58139"] ;
604 -> 610 ;
611 [label="B4_mean <= 707.5\ngini = 0.278\nsamples = 3\nvalue = [1, 0, 0, 0, 0, 0, 5, 0, 0, 0, 0]\nclass = y[6]", fillcolor="#618cea"] ;
597 -> 611 ;
612 [label="gini = 0.0\nsamples = 2\nvalue = [0, 0, 0, 0, 0, 0, 5, 0, 0, 0, 0]\nclass = y[6]", fillcolor="#396fe5"] ;
611 -> 612 ;
613 [label="gini = 0.0\nsamples = 1\nvalue = [1, 0, 0, 0, 0, 0, 0, 0, 0, 0, 0]\nclass = y[0]", fillcolor="#e58139"] ;
611 -> 613 ;
614 [label="elevation <= 147.5\ngini = 0.336\nsamples = 50\nvalue = [59, 0, 6, 0, 1, 4, 2, 0, 0, 1, 0]\nclass = y[0]", fillcolor="#ea9b62"] ;
596 -> 614 ;
615 [label="B4_mean <= 715.5\ngini = 0.5\nsamples = 3\nvalue = [0, 0, 0, 0, 0, 2, 2, 0, 0, 0, 0]\nclass = y[5]", fillcolor="#ffffff"] ;
614 -> 615 ;
616 [label="gini = 0.0\nsamples = 2\nvalue = [0, 0, 0, 0, 0, 2, 0, 0, 0, 0, 0]\nclass = y[5]", fillcolor="#39cee5"] ;
615 -> 616 ;
617 [label="gini = 0.0\nsamples = 1\nvalue = [0, 0, 0, 0, 0, 0, 2, 0, 0, 0, 0]\nclass = y[6]", fillcolor="#396fe5"] ;
615 -> 617 ;
618 [label="VV_mean <= -812.5\ngini = 0.26\nsamples = 47\nvalue = [59, 0, 6, 0, 1, 2, 0, 0, 0, 1, 0]\nclass = y[0]", fillcolor="#e99558"] ;
614 -> 618 ;
619 [label="ndvi_mean <= 8956.5\ngini = 0.503\nsamples = 17\nvalue = [16, 0, 5, 0, 1, 2, 0, 0, 0, 0, 0]\nclass = y[0]", fillcolor="#f0b68c"] ;
618 -> 619 ;
620 [label="rem <= 16.5\ngini = 0.219\nsamples = 12\nvalue = [14, 0, 0, 0, 0, 2, 0, 0, 0, 0, 0]\nclass = y[0]", fillcolor="#e99355"] ;
619 -> 620 ;
621 [label="gini = 0.0\nsamples = 1\nvalue = [0, 0, 0, 0, 0, 1, 0, 0, 0, 0, 0]\nclass = y[5]", fillcolor="#39cee5"] ;
620 -> 621 ;
622 [label="VV_mean <= -828.0\ngini = 0.124\nsamples = 11\nvalue = [14, 0, 0, 0, 0, 1, 0, 0, 0, 0, 0]\nclass = y[0]", fillcolor="#e78a47"] ;
620 -> 622 ;
623 [label="gini = 0.0\nsamples = 10\nvalue = [14, 0, 0, 0, 0, 0, 0, 0, 0, 0, 0]\nclass = y[0]", fillcolor="#e58139"] ;
622 -> 623 ;
624 [label="gini = 0.0\nsamples = 1\nvalue = [0, 0, 0, 0, 0, 1, 0, 0, 0, 0, 0]\nclass = y[5]", fillcolor="#39cee5"] ;
622 -> 624 ;
625 [label="elevation <= 174.0\ngini = 0.531\nsamples = 5\nvalue = [2, 0, 5, 0, 1, 0, 0, 0, 0, 0, 0]\nclass = y[2]", fillcolor="#c7f29c"] ;
619 -> 625 ;
626 [label="ndvi_mean <= 8971.0\ngini = 0.444\nsamples = 2\nvalue = [2, 0, 0, 0, 1, 0, 0, 0, 0, 0, 0]\nclass = y[0]", fillcolor="#f2c09c"] ;
625 -> 626 ;
627 [label="gini = 0.0\nsamples = 1\nvalue = [0, 0, 0, 0, 1, 0, 0, 0, 0, 0, 0]\nclass = y[4]", fillcolor="#39e59d"] ;
626 -> 627 ;
628 [label="gini = 0.0\nsamples = 1\nvalue = [2, 0, 0, 0, 0, 0, 0, 0, 0, 0, 0]\nclass = y[0]", fillcolor="#e58139"] ;
626 -> 628 ;
629 [label="gini = 0.0\nsamples = 3\nvalue = [0, 0, 5, 0, 0, 0, 0, 0, 0, 0, 0]\nclass = y[2]", fillcolor="#8fe539"] ;
625 -> 629 ;
630 [label="B12_mean <= 1125.5\ngini = 0.086\nsamples = 30\nvalue = [43, 0, 1, 0, 0, 0, 0, 0, 0, 1, 0]\nclass = y[0]", fillcolor="#e68742"] ;
618 -> 630 ;
631 [label="elevation <= 201.0\ngini = 0.5\nsamples = 2\nvalue = [1, 0, 1, 0, 0, 0, 0, 0, 0, 0, 0]\nclass = y[0]", fillcolor="#ffffff"] ;
630 -> 631 ;
632 [label="gini = 0.0\nsamples = 1\nvalue = [0, 0, 1, 0, 0, 0, 0, 0, 0, 0, 0]\nclass = y[2]", fillcolor="#8fe539"] ;
631 -> 632 ;
633 [label="gini = 0.0\nsamples = 1\nvalue = [1, 0, 0, 0, 0, 0, 0, 0, 0, 0, 0]\nclass = y[0]", fillcolor="#e58139"] ;
631 -> 633 ;
634 [label="VH_mean <= -1253.0\ngini = 0.045\nsamples = 28\nvalue = [42, 0, 0, 0, 0, 0, 0, 0, 0, 1, 0]\nclass = y[0]", fillcolor="#e6843e"] ;
630 -> 634 ;
635 [label="gini = 0.0\nsamples = 24\nvalue = [39, 0, 0, 0, 0, 0, 0, 0, 0, 0, 0]\nclass = y[0]", fillcolor="#e58139"] ;
634 -> 635 ;
636 [label="B8_mean <= 5407.0\ngini = 0.375\nsamples = 4\nvalue = [3, 0, 0, 0, 0, 0, 0, 0, 0, 1, 0]\nclass = y[0]", fillcolor="#eeab7b"] ;
634 -> 636 ;
637 [label="gini = 0.0\nsamples = 1\nvalue = [0, 0, 0, 0, 0, 0, 0, 0, 0, 1, 0]\nclass = y[9]", fillcolor="#e539ae"] ;
636 -> 637 ;
638 [label="gini = 0.0\nsamples = 3\nvalue = [3, 0, 0, 0, 0, 0, 0, 0, 0, 0, 0]\nclass = y[0]", fillcolor="#e58139"] ;
636 -> 638 ;
639 [label="VV_mean <= -1386.0\ngini = 0.246\nsamples = 163\nvalue = [226, 0, 9, 0, 10, 7, 7, 0, 0, 2, 0]\nclass = y[0]", fillcolor="#e99355"] ;
595 -> 639 ;
640 [label="gini = 0.0\nsamples = 1\nvalue = [0, 0, 0, 0, 0, 0, 0, 0, 0, 2, 0]\nclass = y[9]", fillcolor="#e539ae"] ;
639 -> 640 ;
641 [label="B12_mean <= 1473.5\ngini = 0.234\nsamples = 162\nvalue = [226, 0, 9, 0, 10, 7, 7, 0, 0, 0, 0]\nclass = y[0]", fillcolor="#e89253"] ;
639 -> 641 ;
642 [label="rem <= 21.5\ngini = 0.219\nsamples = 158\nvalue = [223.0, 0.0, 9.0, 0.0, 10.0, 4.0, 7.0, 0.0, 0.0, 0.0\n0.0]\nclass = y[0]", fillcolor="#e89151"] ;
641 -> 642 ;
643 [label="B8_slope <= 107.5\ngini = 0.417\nsamples = 50\nvalue = [60, 0, 9, 0, 6, 2, 3, 0, 0, 0, 0]\nclass = y[0]", fillcolor="#eca471"] ;
642 -> 643 ;
644 [label="B8_mean <= 5113.0\ngini = 0.376\nsamples = 47\nvalue = [60.0, 0.0, 8.0, 0.0, 5.0, 1.0, 3.0, 0.0, 0.0, 0.0\n0.0]\nclass = y[0]", fillcolor="#eba06a"] ;
643 -> 644 ;
645 [label="rem <= 11.0\ngini = 0.5\nsamples = 2\nvalue = [0, 0, 1, 0, 0, 0, 1, 0, 0, 0, 0]\nclass = y[2]", fillcolor="#ffffff"] ;
644 -> 645 ;
646 [label="gini = 0.0\nsamples = 1\nvalue = [0, 0, 0, 0, 0, 0, 1, 0, 0, 0, 0]\nclass = y[6]", fillcolor="#396fe5"] ;
645 -> 646 ;
647 [label="gini = 0.0\nsamples = 1\nvalue = [0, 0, 1, 0, 0, 0, 0, 0, 0, 0, 0]\nclass = y[2]", fillcolor="#8fe539"] ;
645 -> 647 ;
648 [label="ndvi_mean <= 9147.0\ngini = 0.346\nsamples = 45\nvalue = [60, 0, 7, 0, 5, 1, 2, 0, 0, 0, 0]\nclass = y[0]", fillcolor="#eb9d65"] ;
644 -> 648 ;
649 [label="B12_mean <= 1298.5\ngini = 0.296\nsamples = 43\nvalue = [60, 0, 6, 0, 3, 1, 2, 0, 0, 0, 0]\nclass = y[0]", fillcolor="#ea985d"] ;
648 -> 649 ;
650 [label="ndvi_mean <= 9051.0\ngini = 0.429\nsamples = 22\nvalue = [25, 0, 5, 0, 3, 0, 1, 0, 0, 0, 0]\nclass = y[0]", fillcolor="#eda876"] ;
649 -> 650 ;
651 [label="VH_mean <= -1285.0\ngini = 0.628\nsamples = 9\nvalue = [5, 0, 4, 0, 2, 0, 0, 0, 0, 0, 0]\nclass = y[0]", fillcolor="#fbede3"] ;
650 -> 651 ;
652 [label="VV_mean <= -805.0\ngini = 0.611\nsamples = 5\nvalue = [1, 0, 3, 0, 2, 0, 0, 0, 0, 0, 0]\nclass = y[2]", fillcolor="#e3f8ce"] ;
651 -> 652 ;
653 [label="elevation <= 174.0\ngini = 0.444\nsamples = 3\nvalue = [1, 0, 0, 0, 2, 0, 0, 0, 0, 0, 0]\nclass = y[4]", fillcolor="#9cf2ce"] ;
652 -> 653 ;
654 [label="gini = 0.0\nsamples = 1\nvalue = [0, 0, 0, 0, 1, 0, 0, 0, 0, 0, 0]\nclass = y[4]", fillcolor="#39e59d"] ;
653 -> 654 ;
655 [label="ndvi_amp <= 12.0\ngini = 0.5\nsamples = 2\nvalue = [1, 0, 0, 0, 1, 0, 0, 0, 0, 0, 0]\nclass = y[0]", fillcolor="#ffffff"] ;
653 -> 655 ;
656 [label="gini = 0.0\nsamples = 1\nvalue = [1, 0, 0, 0, 0, 0, 0, 0, 0, 0, 0]\nclass = y[0]", fillcolor="#e58139"] ;
655 -> 656 ;
657 [label="gini = 0.0\nsamples = 1\nvalue = [0, 0, 0, 0, 1, 0, 0, 0, 0, 0, 0]\nclass = y[4]", fillcolor="#39e59d"] ;
655 -> 657 ;
658 [label="gini = 0.0\nsamples = 2\nvalue = [0, 0, 3, 0, 0, 0, 0, 0, 0, 0, 0]\nclass = y[2]", fillcolor="#8fe539"] ;
652 -> 658 ;
659 [label="VV_mean <= -556.0\ngini = 0.32\nsamples = 4\nvalue = [4, 0, 1, 0, 0, 0, 0, 0, 0, 0, 0]\nclass = y[0]", fillcolor="#eca06a"] ;
651 -> 659 ;
660 [label="gini = 0.0\nsamples = 3\nvalue = [4, 0, 0, 0, 0, 0, 0, 0, 0, 0, 0]\nclass = y[0]", fillcolor="#e58139"] ;
659 -> 660 ;
661 [label="gini = 0.0\nsamples = 1\nvalue = [0, 0, 1, 0, 0, 0, 0, 0, 0, 0, 0]\nclass = y[2]", fillcolor="#8fe539"] ;
659 -> 661 ;
662 [label="twi <= 2.5\ngini = 0.238\nsamples = 13\nvalue = [20, 0, 1, 0, 1, 0, 1, 0, 0, 0, 0]\nclass = y[0]", fillcolor="#e99254"] ;
650 -> 662 ;
663 [label="B12_mean <= 1262.0\ngini = 0.111\nsamples = 8\nvalue = [16, 0, 0, 0, 1, 0, 0, 0, 0, 0, 0]\nclass = y[0]", fillcolor="#e78945"] ;
662 -> 663 ;
664 [label="gini = 0.0\nsamples = 6\nvalue = [15, 0, 0, 0, 0, 0, 0, 0, 0, 0, 0]\nclass = y[0]", fillcolor="#e58139"] ;
663 -> 664 ;
665 [label="VV_mean <= -745.0\ngini = 0.5\nsamples = 2\nvalue = [1, 0, 0, 0, 1, 0, 0, 0, 0, 0, 0]\nclass = y[0]", fillcolor="#ffffff"] ;
663 -> 665 ;
666 [label="gini = 0.0\nsamples = 1\nvalue = [0, 0, 0, 0, 1, 0, 0, 0, 0, 0, 0]\nclass = y[4]", fillcolor="#39e59d"] ;
665 -> 666 ;
667 [label="gini = 0.0\nsamples = 1\nvalue = [1, 0, 0, 0, 0, 0, 0, 0, 0, 0, 0]\nclass = y[0]", fillcolor="#e58139"] ;
665 -> 667 ;
668 [label="VV_mean <= -695.0\ngini = 0.5\nsamples = 5\nvalue = [4, 0, 1, 0, 0, 0, 1, 0, 0, 0, 0]\nclass = y[0]", fillcolor="#efb388"] ;
662 -> 668 ;
669 [label="gini = 0.0\nsamples = 3\nvalue = [4, 0, 0, 0, 0, 0, 0, 0, 0, 0, 0]\nclass = y[0]", fillcolor="#e58139"] ;
668 -> 669 ;
670 [label="VV_mean <= -652.0\ngini = 0.5\nsamples = 2\nvalue = [0, 0, 1, 0, 0, 0, 1, 0, 0, 0, 0]\nclass = y[2]", fillcolor="#ffffff"] ;
668 -> 670 ;
671 [label="gini = 0.0\nsamples = 1\nvalue = [0, 0, 1, 0, 0, 0, 0, 0, 0, 0, 0]\nclass = y[2]", fillcolor="#8fe539"] ;
670 -> 671 ;
672 [label="gini = 0.0\nsamples = 1\nvalue = [0, 0, 0, 0, 0, 0, 1, 0, 0, 0, 0]\nclass = y[6]", fillcolor="#396fe5"] ;
670 -> 672 ;
673 [label="B8_mean <= 6535.0\ngini = 0.15\nsamples = 21\nvalue = [35, 0, 1, 0, 0, 1, 1, 0, 0, 0, 0]\nclass = y[0]", fillcolor="#e78b49"] ;
649 -> 673 ;
674 [label="B8_slope <= 28.5\ngini = 0.104\nsamples = 20\nvalue = [35, 0, 1, 0, 0, 1, 0, 0, 0, 0, 0]\nclass = y[0]", fillcolor="#e68844"] ;
673 -> 674 ;
675 [label="gini = 0.0\nsamples = 13\nvalue = [24, 0, 0, 0, 0, 0, 0, 0, 0, 0, 0]\nclass = y[0]", fillcolor="#e58139"] ;
674 -> 675 ;
676 [label="VH_mean <= -1319.5\ngini = 0.272\nsamples = 7\nvalue = [11, 0, 1, 0, 0, 1, 0, 0, 0, 0, 0]\nclass = y[0]", fillcolor="#e9965a"] ;
674 -> 676 ;
677 [label="elevation <= 194.0\ngini = 0.153\nsamples = 6\nvalue = [11, 0, 0, 0, 0, 1, 0, 0, 0, 0, 0]\nclass = y[0]", fillcolor="#e78c4b"] ;
676 -> 677 ;
678 [label="gini = 0.0\nsamples = 5\nvalue = [11, 0, 0, 0, 0, 0, 0, 0, 0, 0, 0]\nclass = y[0]", fillcolor="#e58139"] ;
677 -> 678 ;
679 [label="gini = 0.0\nsamples = 1\nvalue = [0, 0, 0, 0, 0, 1, 0, 0, 0, 0, 0]\nclass = y[5]", fillcolor="#39cee5"] ;
677 -> 679 ;
680 [label="gini = 0.0\nsamples = 1\nvalue = [0, 0, 1, 0, 0, 0, 0, 0, 0, 0, 0]\nclass = y[2]", fillcolor="#8fe539"] ;
676 -> 680 ;
681 [label="gini = 0.0\nsamples = 1\nvalue = [0, 0, 0, 0, 0, 0, 1, 0, 0, 0, 0]\nclass = y[6]", fillcolor="#396fe5"] ;
673 -> 681 ;
682 [label="B8_slope <= 8.0\ngini = 0.444\nsamples = 2\nvalue = [0, 0, 1, 0, 2, 0, 0, 0, 0, 0, 0]\nclass = y[4]", fillcolor="#9cf2ce"] ;
648 -> 682 ;
683 [label="gini = 0.0\nsamples = 1\nvalue = [0, 0, 1, 0, 0, 0, 0, 0, 0, 0, 0]\nclass = y[2]", fillcolor="#8fe539"] ;
682 -> 683 ;
684 [label="gini = 0.0\nsamples = 1\nvalue = [0, 0, 0, 0, 2, 0, 0, 0, 0, 0, 0]\nclass = y[4]", fillcolor="#39e59d"] ;
682 -> 684 ;
685 [label="VV_mean <= -870.5\ngini = 0.667\nsamples = 3\nvalue = [0, 0, 1, 0, 1, 1, 0, 0, 0, 0, 0]\nclass = y[2]", fillcolor="#ffffff"] ;
643 -> 685 ;
686 [label="gini = 0.0\nsamples = 1\nvalue = [0, 0, 0, 0, 0, 1, 0, 0, 0, 0, 0]\nclass = y[5]", fillcolor="#39cee5"] ;
685 -> 686 ;
687 [label="B12_mean <= 1284.0\ngini = 0.5\nsamples = 2\nvalue = [0, 0, 1, 0, 1, 0, 0, 0, 0, 0, 0]\nclass = y[2]", fillcolor="#ffffff"] ;
685 -> 687 ;
688 [label="gini = 0.0\nsamples = 1\nvalue = [0, 0, 1, 0, 0, 0, 0, 0, 0, 0, 0]\nclass = y[2]", fillcolor="#8fe539"] ;
687 -> 688 ;
689 [label="gini = 0.0\nsamples = 1\nvalue = [0, 0, 0, 0, 1, 0, 0, 0, 0, 0, 0]\nclass = y[4]", fillcolor="#39e59d"] ;
687 -> 689 ;
690 [label="B8_slope <= -229.5\ngini = 0.111\nsamples = 108\nvalue = [163, 0, 0, 0, 4, 2, 4, 0, 0, 0, 0]\nclass = y[0]", fillcolor="#e78845"] ;
642 -> 690 ;
691 [label="gini = 0.0\nsamples = 1\nvalue = [0, 0, 0, 0, 1, 0, 0, 0, 0, 0, 0]\nclass = y[4]", fillcolor="#39e59d"] ;
690 -> 691 ;
692 [label="B8_phase <= 5083.5\ngini = 0.101\nsamples = 107\nvalue = [163, 0, 0, 0, 3, 2, 4, 0, 0, 0, 0]\nclass = y[0]", fillcolor="#e68844"] ;
690 -> 692 ;
693 [label="rem <= 35.0\ngini = 0.213\nsamples = 48\nvalue = [61, 0, 0, 0, 2, 2, 4, 0, 0, 0, 0]\nclass = y[0]", fillcolor="#e89151"] ;
692 -> 693 ;
694 [label="B12_mean <= 1259.0\ngini = 0.351\nsamples = 25\nvalue = [27, 0, 0, 0, 2, 1, 4, 0, 0, 0, 0]\nclass = y[0]", fillcolor="#eb9e67"] ;
693 -> 694 ;
695 [label="B8_slope <= 58.5\ngini = 0.219\nsamples = 12\nvalue = [14, 0, 0, 0, 2, 0, 0, 0, 0, 0, 0]\nclass = y[0]", fillcolor="#e99355"] ;
694 -> 695 ;
696 [label="gini = 0.0\nsamples = 10\nvalue = [13, 0, 0, 0, 0, 0, 0, 0, 0, 0, 0]\nclass = y[0]", fillcolor="#e58139"] ;
695 -> 696 ;
697 [label="VV_mean <= -845.5\ngini = 0.444\nsamples = 2\nvalue = [1, 0, 0, 0, 2, 0, 0, 0, 0, 0, 0]\nclass = y[4]", fillcolor="#9cf2ce"] ;
695 -> 697 ;
698 [label="gini = 0.0\nsamples = 1\nvalue = [0, 0, 0, 0, 2, 0, 0, 0, 0, 0, 0]\nclass = y[4]", fillcolor="#39e59d"] ;
697 -> 698 ;
699 [label="gini = 0.0\nsamples = 1\nvalue = [1, 0, 0, 0, 0, 0, 0, 0, 0, 0, 0]\nclass = y[0]", fillcolor="#e58139"] ;
697 -> 699 ;
700 [label="elevation <= 208.5\ngini = 0.426\nsamples = 13\nvalue = [13, 0, 0, 0, 0, 1, 4, 0, 0, 0, 0]\nclass = y[0]", fillcolor="#eeae80"] ;
694 -> 700 ;
